,0,1,2,3,4,5,6,7,8,9,10,11,12,13,14,15,16,17,18,19
3500,0.16666666666666666,0.0,0.0,-0.16666666666666666,0.16666666666666666,0.0,0.0,-0.16666666666666666,0.16666666666666666,0.0,0.16666666666666666,-0.16666666666666666,0.0,0.16666666666666666,0.16666666666666666,-0.16666666666666666,0.0,0.0,-0.16666666666666666,-0.16666666666666666
3501,0.0,0.0,0.0,-0.16666666666666666,0.16666666666666666,0.0,0.0,-0.16666666666666666,0.16666666666666666,0.0,0.16666666666666666,-0.16666666666666666,-0.16666666666666666,0.16666666666666666,0.16666666666666666,0.0,0.16666666666666666,0.0,-0.16666666666666666,-0.16666666666666666
3502,0.0,0.0,0.0,-0.16666666666666666,0.16666666666666666,0.0,0.0,-0.16666666666666666,0.0,0.0,0.16666666666666666,-0.16666666666666666,-0.16666666666666666,0.16666666666666666,0.16666666666666666,0.0,0.16666666666666666,0.16666666666666666,-0.16666666666666666,-0.16666666666666666
3503,0.0,0.0,0.0,0.0,0.16666666666666666,-0.16666666666666666,0.0,-0.16666666666666666,0.0,0.0,0.16666666666666666,-0.16666666666666666,-0.16666666666666666,0.16666666666666666,0.16666666666666666,0.0,0.16666666666666666,0.16666666666666666,-0.16666666666666666,-0.16666666666666666
3504,0.0,0.0,0.0,0.0,0.16666666666666666,-0.16666666666666666,-0.16666666666666666,-0.16666666666666666,0.0,0.0,0.16666666666666666,-0.16666666666666666,-0.16666666666666666,0.16666666666666666,0.16666666666666666,0.0,0.16666666666666666,0.16666666666666666,-0.16666666666666666,0.0
3505,0.0,0.0,0.0,0.0,0.16666666666666666,-0.16666666666666666,-0.16666666666666666,-0.16666666666666666,0.0,0.0,0.16666666666666666,-0.16666666666666666,-0.16666666666666666,0.16666666666666666,0.16666666666666666,0.0,0.16666666666666666,0.16666666666666666,-0.16666666666666666,0.0
3506,0.0,0.0,0.0,0.0,0.16666666666666666,-0.16666666666666666,-0.16666666666666666,0.0,-0.16666666666666666,0.0,0.16666666666666666,-0.16666666666666666,-0.16666666666666666,0.16666666666666666,0.16666666666666666,0.0,0.16666666666666666,0.16666666666666666,-0.16666666666666666,0.0
3507,0.0,0.0,0.0,0.0,0.16666666666666666,-0.16666666666666666,-0.16666666666666666,0.0,-0.16666666666666666,0.0,0.0,-0.16666666666666666,-0.16666666666666666,0.16666666666666666,0.16666666666666666,0.0,0.16666666666666666,0.16666666666666666,-0.16666666666666666,0.16666666666666666
3508,0.0,0.0,0.0,0.0,0.16666666666666666,-0.16666666666666666,-0.16666666666666666,0.0,-0.16666666666666666,0.0,0.0,-0.16666666666666666,-0.16666666666666666,0.0,0.16666666666666666,0.16666666666666666,0.16666666666666666,0.16666666666666666,-0.16666666666666666,0.16666666666666666
3509,0.0,0.0,0.0,0.0,0.16666666666666666,-0.16666666666666666,-0.16666666666666666,0.0,-0.16666666666666666,0.0,0.0,-0.16666666666666666,-0.16666666666666666,0.0,0.16666666666666666,0.16666666666666666,0.16666666666666666,0.16666666666666666,-0.16666666666666666,0.16666666666666666
3510,0.0,0.0,0.0,0.0,0.16666666666666666,-0.16666666666666666,-0.16666666666666666,0.16666666666666666,-0.16666666666666666,0.0,0.0,-0.16666666666666666,-0.16666666666666666,0.0,0.16666666666666666,0.16666666666666666,0.0,0.16666666666666666,-0.16666666666666666,0.16666666666666666
3511,0.0,0.0,0.0,0.0,0.16666666666666666,-0.16666666666666666,-0.16666666666666666,0.16666666666666666,-0.16666666666666666,0.0,0.0,-0.16666666666666666,-0.16666666666666666,0.0,0.16666666666666666,0.16666666666666666,0.0,0.16666666666666666,-0.16666666666666666,0.16666666666666666
3512,0.0,0.0,0.0,0.0,0.16666666666666666,-0.16666666666666666,-0.16666666666666666,0.16666666666666666,-0.16666666666666666,0.0,0.0,-0.16666666666666666,-0.16666666666666666,0.0,0.16666666666666666,0.16666666666666666,0.0,0.16666666666666666,-0.16666666666666666,0.16666666666666666
3513,0.0,-0.16666666666666666,0.0,0.0,0.16666666666666666,-0.16666666666666666,-0.16666666666666666,0.16666666666666666,0.0,0.0,0.0,-0.16666666666666666,-0.16666666666666666,0.0,0.16666666666666666,0.16666666666666666,0.0,0.16666666666666666,-0.16666666666666666,0.16666666666666666
3514,0.0,0.0,0.0,0.0,0.2,0.0,-0.2,0.2,-0.2,0.0,0.0,0.0,-0.2,0.0,0.2,0.2,-0.2,0.0,-0.2,0.2
3515,0.0,0.0,0.0,0.0,0.2,0.0,-0.2,0.2,-0.2,0.0,0.0,0.0,-0.2,0.0,0.2,0.2,-0.2,0.0,-0.2,0.2
3516,0.0,0.0,0.0,0.2,0.2,-0.2,-0.2,0.2,-0.2,0.0,0.0,0.0,-0.2,0.0,0.2,0.2,0.0,0.0,-0.2,0.0
3517,0.0,0.0,0.0,0.2,0.2,-0.2,-0.2,0.2,-0.2,0.0,0.0,0.0,0.0,-0.2,0.2,0.2,0.0,0.0,-0.2,0.0
3518,0.0,0.2,0.0,0.2,0.2,-0.2,-0.2,0.2,-0.2,0.0,0.0,0.0,0.0,-0.2,0.2,0.0,0.0,0.0,-0.2,0.0
3519,0.0,0.2,0.0,0.2,0.2,-0.2,-0.2,0.2,-0.2,-0.2,0.0,0.0,0.0,0.0,0.2,0.0,0.0,0.0,-0.2,0.0
3520,0.2,0.2,0.0,0.2,0.2,-0.2,-0.2,0.0,-0.2,-0.2,0.0,0.0,0.0,0.0,0.2,0.0,0.0,0.0,-0.2,0.0
3521,0.0,0.2,0.0,0.0,0.2,-0.2,-0.2,0.0,0.0,-0.2,0.0,0.0,0.2,0.0,0.2,-0.2,0.0,0.0,-0.2,0.2
3522,0.0,0.0,0.0,0.0,0.2,-0.2,-0.2,0.2,0.0,-0.2,0.0,0.0,0.2,0.0,0.2,-0.2,0.0,0.0,-0.2,0.2
3523,0.0,0.0,0.0,0.2,0.2,-0.2,-0.2,0.2,0.0,-0.2,0.0,0.0,0.2,0.0,0.2,-0.2,0.0,0.0,-0.2,0.0
3524,0.0,0.0,0.0,0.2,0.2,-0.2,-0.2,0.2,0.0,-0.2,0.0,0.0,0.2,0.0,0.2,-0.2,0.0,0.0,-0.2,0.0
3525,0.0,0.0,0.0,0.16666666666666666,0.16666666666666666,0.0,-0.16666666666666666,0.16666666666666666,0.0,-0.16666666666666666,0.0,-0.16666666666666666,-0.16666666666666666,0.0,0.16666666666666666,-0.16666666666666666,0.16666666666666666,0.16666666666666666,-0.16666666666666666,0.0
3526,0.0,0.0,0.0,0.16666666666666666,0.16666666666666666,0.0,-0.16666666666666666,0.16666666666666666,0.0,-0.16666666666666666,0.0,-0.16666666666666666,-0.16666666666666666,0.0,0.16666666666666666,-0.16666666666666666,0.16666666666666666,0.0,-0.16666666666666666,0.16666666666666666
3527,0.0,0.0,0.0,0.16666666666666666,0.16666666666666666,0.0,-0.16666666666666666,0.16666666666666666,0.0,-0.16666666666666666,0.0,-0.16666666666666666,-0.16666666666666666,0.0,0.16666666666666666,-0.16666666666666666,0.16666666666666666,0.0,-0.16666666666666666,0.16666666666666666
3528,-0.16666666666666666,0.0,0.0,0.16666666666666666,0.16666666666666666,0.0,-0.16666666666666666,0.16666666666666666,0.0,-0.16666666666666666,0.0,-0.16666666666666666,0.0,0.0,0.16666666666666666,-0.16666666666666666,0.16666666666666666,0.0,-0.16666666666666666,0.16666666666666666
3529,-0.16666666666666666,0.16666666666666666,0.0,0.16666666666666666,0.16666666666666666,0.0,-0.16666666666666666,0.16666666666666666,0.0,-0.16666666666666666,0.0,-0.16666666666666666,0.0,0.0,0.16666666666666666,-0.16666666666666666,0.16666666666666666,0.0,-0.16666666666666666,0.0
3530,-0.16666666666666666,0.16666666666666666,0.0,0.16666666666666666,0.16666666666666666,0.0,-0.16666666666666666,0.16666666666666666,0.0,-0.16666666666666666,0.0,-0.16666666666666666,0.0,0.0,0.16666666666666666,-0.16666666666666666,0.0,0.0,-0.16666666666666666,0.16666666666666666
3531,-0.16666666666666666,0.16666666666666666,0.0,0.16666666666666666,0.16666666666666666,0.0,-0.16666666666666666,0.16666666666666666,0.0,-0.16666666666666666,0.0,-0.16666666666666666,0.0,0.0,0.16666666666666666,-0.16666666666666666,0.0,0.0,-0.16666666666666666,0.16666666666666666
3532,-0.16666666666666666,0.16666666666666666,0.0,0.16666666666666666,0.16666666666666666,0.0,-0.16666666666666666,0.16666666666666666,0.0,-0.16666666666666666,0.0,-0.16666666666666666,0.0,0.0,0.16666666666666666,-0.16666666666666666,0.0,0.0,-0.16666666666666666,0.16666666666666666
3533,-0.16666666666666666,0.16666666666666666,0.0,0.16666666666666666,0.16666666666666666,0.0,-0.16666666666666666,0.16666666666666666,0.0,-0.16666666666666666,0.0,-0.16666666666666666,0.0,0.0,0.16666666666666666,-0.16666666666666666,0.0,0.0,-0.16666666666666666,0.16666666666666666
3534,-0.16666666666666666,0.16666666666666666,0.0,0.16666666666666666,0.16666666666666666,0.0,-0.16666666666666666,0.16666666666666666,0.0,-0.16666666666666666,0.0,-0.16666666666666666,0.0,0.0,0.16666666666666666,-0.16666666666666666,0.0,0.0,-0.16666666666666666,0.16666666666666666
3535,-0.16666666666666666,0.16666666666666666,0.0,0.16666666666666666,0.16666666666666666,0.0,-0.16666666666666666,0.16666666666666666,0.0,-0.16666666666666666,0.0,-0.16666666666666666,0.0,0.0,0.16666666666666666,-0.16666666666666666,0.0,0.0,-0.16666666666666666,0.16666666666666666
3536,-0.16666666666666666,0.16666666666666666,0.0,0.16666666666666666,0.16666666666666666,0.0,-0.16666666666666666,0.16666666666666666,-0.16666666666666666,-0.16666666666666666,0.0,0.0,0.0,0.0,0.16666666666666666,-0.16666666666666666,0.0,0.0,-0.16666666666666666,0.16666666666666666
3537,-0.16666666666666666,0.16666666666666666,0.0,0.16666666666666666,0.16666666666666666,0.0,-0.16666666666666666,0.16666666666666666,-0.16666666666666666,-0.16666666666666666,0.0,0.0,0.0,0.0,0.16666666666666666,-0.16666666666666666,0.0,0.0,-0.16666666666666666,0.16666666666666666
3538,-0.2,0.2,0.0,0.0,0.2,0.0,-0.2,0.0,0.0,0.0,0.2,0.2,0.0,0.0,0.2,-0.2,0.0,-0.2,-0.2,0.0
3539,-0.2,0.2,0.0,0.0,0.2,0.0,-0.2,0.0,0.0,0.0,0.2,0.2,0.0,0.0,0.2,-0.2,0.0,-0.2,-0.2,0.0
3540,-0.16666666666666666,0.16666666666666666,0.0,0.16666666666666666,0.16666666666666666,0.0,-0.16666666666666666,0.16666666666666666,-0.16666666666666666,-0.16666666666666666,0.0,0.0,0.0,0.16666666666666666,0.16666666666666666,-0.16666666666666666,0.0,0.0,-0.16666666666666666,0.0
3541,-0.2,0.2,0.0,0.0,0.2,0.0,-0.2,0.0,-0.2,0.0,0.2,0.2,-0.2,0.2,0.0,-0.2,0.0,0.0,0.0,0.0
3542,-0.16666666666666666,0.16666666666666666,0.0,0.16666666666666666,0.16666666666666666,0.0,-0.16666666666666666,0.16666666666666666,-0.16666666666666666,-0.16666666666666666,0.16666666666666666,0.0,0.0,0.0,0.16666666666666666,-0.16666666666666666,0.0,0.0,-0.16666666666666666,0.0
3543,0.0,0.2,0.0,0.0,0.2,0.0,-0.2,0.0,-0.2,0.0,0.2,0.2,-0.2,0.2,0.0,-0.2,0.0,0.0,0.0,-0.2
3544,0.0,0.2,-0.2,0.0,0.2,0.0,-0.2,0.0,-0.2,0.0,0.0,0.2,-0.2,0.2,0.2,0.0,0.0,0.0,0.0,-0.2
3545,0.0,0.16666666666666666,-0.16666666666666666,0.16666666666666666,0.16666666666666666,0.0,-0.16666666666666666,0.16666666666666666,-0.16666666666666666,-0.16666666666666666,0.0,0.0,0.0,0.16666666666666666,0.16666666666666666,-0.16666666666666666,0.0,0.0,-0.16666666666666666,0.0
3546,0.0,0.2,-0.2,0.0,0.2,0.0,0.0,0.0,-0.2,0.0,0.0,0.2,-0.2,0.2,0.2,0.0,-0.2,0.0,0.0,-0.2
3547,0.0,0.2,-0.2,0.0,0.2,-0.2,0.0,0.0,-0.2,0.0,0.0,0.2,-0.2,0.2,0.2,0.0,-0.2,0.0,0.0,0.0
3548,0.0,0.2,-0.2,0.0,0.2,-0.2,0.0,0.0,-0.2,0.0,0.0,0.0,0.0,0.2,0.2,-0.2,-0.2,0.2,0.0,0.0
3549,0.0,0.2,0.0,0.0,0.2,-0.2,0.0,0.0,-0.2,0.0,0.0,0.0,0.0,0.2,0.2,-0.2,-0.2,0.2,-0.2,0.0
3550,0.0,0.2,0.0,0.0,0.2,-0.2,0.0,0.0,-0.2,0.0,0.0,0.0,0.0,0.2,0.2,-0.2,-0.2,0.2,-0.2,0.0
3551,0.0,0.0,-0.2,0.0,0.2,-0.2,0.0,0.2,0.0,0.0,0.0,0.0,0.0,0.2,0.2,-0.2,-0.2,0.2,-0.2,0.0
3552,0.0,0.0,0.0,0.0,0.2,-0.2,0.0,0.2,0.0,0.0,0.0,-0.2,0.0,0.2,0.2,-0.2,-0.2,0.2,-0.2,0.0
3553,0.0,-0.2,0.0,0.0,0.2,-0.2,0.0,0.2,0.0,0.0,0.0,-0.2,0.0,0.2,0.2,-0.2,0.0,0.2,-0.2,0.0
3554,0.0,-0.2,0.0,0.2,0.2,-0.2,0.0,0.2,0.0,0.0,0.0,-0.2,0.0,0.0,0.2,-0.2,0.0,0.2,-0.2,0.0
3555,0.0,-0.2,0.0,0.2,0.2,-0.2,0.0,0.2,0.0,0.0,0.0,-0.2,0.0,0.0,0.2,-0.2,0.0,0.2,-0.2,0.0
3556,0.0,-0.2,0.0,0.2,0.2,-0.2,0.0,0.2,0.0,0.0,0.0,-0.2,0.0,0.0,0.2,-0.2,0.0,0.2,-0.2,0.0
3557,0.0,0.0,0.0,0.16666666666666666,0.16666666666666666,-0.16666666666666666,-0.16666666666666666,0.16666666666666666,0.0,-0.16666666666666666,0.16666666666666666,-0.16666666666666666,0.0,0.16666666666666666,0.16666666666666666,-0.16666666666666666,0.0,0.0,-0.16666666666666666,0.0
3558,0.0,0.0,0.0,0.16666666666666666,0.16666666666666666,-0.16666666666666666,-0.16666666666666666,0.16666666666666666,0.0,-0.16666666666666666,0.16666666666666666,-0.16666666666666666,0.0,0.16666666666666666,0.16666666666666666,-0.16666666666666666,0.0,0.0,-0.16666666666666666,0.0
3559,0.0,0.0,0.0,0.16666666666666666,0.16666666666666666,-0.16666666666666666,-0.16666666666666666,0.16666666666666666,0.0,-0.16666666666666666,0.16666666666666666,-0.16666666666666666,0.0,0.16666666666666666,0.16666666666666666,-0.16666666666666666,0.0,0.0,-0.16666666666666666,0.0
3560,0.0,0.0,0.0,0.16666666666666666,0.16666666666666666,-0.16666666666666666,-0.16666666666666666,0.16666666666666666,0.0,-0.16666666666666666,0.16666666666666666,-0.16666666666666666,0.0,0.16666666666666666,0.16666666666666666,-0.16666666666666666,0.0,0.0,-0.16666666666666666,0.0
3561,0.0,0.0,0.0,0.16666666666666666,0.16666666666666666,-0.16666666666666666,-0.16666666666666666,0.16666666666666666,0.0,-0.16666666666666666,0.16666666666666666,-0.16666666666666666,0.0,0.0,0.16666666666666666,-0.16666666666666666,0.0,0.16666666666666666,-0.16666666666666666,0.0
3562,0.0,0.0,0.0,0.16666666666666666,0.16666666666666666,0.0,-0.16666666666666666,0.16666666666666666,-0.16666666666666666,-0.16666666666666666,0.16666666666666666,-0.16666666666666666,0.0,0.0,0.16666666666666666,-0.16666666666666666,0.0,0.16666666666666666,-0.16666666666666666,0.0
3563,0.0,0.0,0.0,0.16666666666666666,0.16666666666666666,0.0,-0.16666666666666666,0.16666666666666666,-0.16666666666666666,-0.16666666666666666,0.16666666666666666,-0.16666666666666666,0.0,0.0,0.16666666666666666,-0.16666666666666666,0.0,0.16666666666666666,-0.16666666666666666,0.0
3564,0.0,-0.2,0.0,0.2,0.0,0.0,-0.2,0.2,0.0,-0.2,0.0,-0.2,0.0,0.0,0.2,-0.2,0.0,0.2,0.0,0.2
3565,0.0,-0.2,-0.2,0.2,0.2,0.0,-0.2,0.2,0.0,-0.2,0.0,-0.2,0.0,0.0,0.0,0.0,0.0,0.2,0.0,0.2
3566,0.0,-0.2,-0.2,0.2,0.2,0.0,-0.2,0.2,0.0,-0.2,0.0,-0.2,0.0,0.0,0.0,0.0,0.0,0.2,0.0,0.2
3567,0.0,-0.2,-0.2,0.2,0.2,0.0,-0.2,0.2,0.0,-0.2,0.0,-0.2,0.0,0.0,0.0,0.0,0.0,0.2,0.0,0.2
3568,0.0,-0.2,-0.2,0.2,0.2,0.0,-0.2,0.2,0.0,-0.2,0.0,-0.2,0.0,0.0,0.0,0.0,0.0,0.2,0.0,0.2
3569,-0.2,-0.2,0.0,0.2,0.2,0.0,-0.2,0.2,0.0,-0.2,0.0,-0.2,0.0,0.0,0.0,0.0,0.0,0.2,0.0,0.2
3570,-0.2,-0.2,0.0,0.2,0.2,0.0,-0.2,0.0,0.0,0.0,-0.2,-0.2,0.2,0.0,0.0,0.2,0.0,0.2,0.0,0.0
3571,-0.16666666666666666,0.0,-0.16666666666666666,0.16666666666666666,0.16666666666666666,0.0,-0.16666666666666666,0.16666666666666666,0.0,-0.16666666666666666,0.0,-0.16666666666666666,0.0,0.16666666666666666,0.16666666666666666,-0.16666666666666666,0.0,0.16666666666666666,0.0,0.0
3572,-0.2,0.0,0.0,0.2,0.2,-0.2,-0.2,0.0,0.0,0.0,-0.2,-0.2,0.2,0.0,0.0,0.2,0.0,0.2,0.0,0.0
3573,-0.16666666666666666,0.16666666666666666,-0.16666666666666666,0.16666666666666666,0.16666666666666666,-0.16666666666666666,-0.16666666666666666,0.16666666666666666,0.0,0.0,0.0,-0.16666666666666666,0.0,0.0,0.16666666666666666,-0.16666666666666666,0.0,0.16666666666666666,0.0,0.0
3574,-0.16666666666666666,0.0,-0.16666666666666666,0.16666666666666666,0.16666666666666666,-0.16666666666666666,-0.16666666666666666,0.16666666666666666,0.0,0.0,0.0,-0.16666666666666666,0.16666666666666666,0.0,0.16666666666666666,-0.16666666666666666,0.0,0.16666666666666666,0.0,0.0
3575,-0.16666666666666666,0.0,-0.16666666666666666,0.16666666666666666,0.16666666666666666,-0.16666666666666666,-0.16666666666666666,0.16666666666666666,-0.16666666666666666,0.0,0.0,-0.16666666666666666,0.0,0.0,0.16666666666666666,0.0,0.0,0.16666666666666666,0.0,0.16666666666666666
3576,-0.16666666666666666,0.0,-0.16666666666666666,0.16666666666666666,0.16666666666666666,-0.16666666666666666,-0.16666666666666666,0.16666666666666666,0.0,0.0,0.0,-0.16666666666666666,0.0,0.0,0.16666666666666666,0.0,0.0,0.16666666666666666,-0.16666666666666666,0.16666666666666666
3577,-0.16666666666666666,0.0,-0.16666666666666666,0.16666666666666666,0.16666666666666666,-0.16666666666666666,-0.16666666666666666,0.16666666666666666,0.0,0.0,0.0,-0.16666666666666666,0.0,0.16666666666666666,0.16666666666666666,0.0,-0.16666666666666666,0.16666666666666666,0.0,0.0
3578,0.0,0.0,-0.16666666666666666,0.16666666666666666,0.16666666666666666,-0.16666666666666666,-0.16666666666666666,0.16666666666666666,0.0,-0.16666666666666666,0.0,-0.16666666666666666,0.0,0.16666666666666666,0.16666666666666666,0.0,-0.16666666666666666,0.16666666666666666,0.0,0.0
3579,0.0,0.0,-0.16666666666666666,0.16666666666666666,0.16666666666666666,-0.16666666666666666,-0.16666666666666666,0.16666666666666666,0.0,-0.16666666666666666,0.0,-0.16666666666666666,0.0,0.16666666666666666,0.16666666666666666,0.0,-0.16666666666666666,0.16666666666666666,0.0,0.0
3580,0.0,0.0,-0.16666666666666666,0.16666666666666666,0.16666666666666666,-0.16666666666666666,-0.16666666666666666,0.16666666666666666,0.0,-0.16666666666666666,0.0,-0.16666666666666666,0.0,0.16666666666666666,0.16666666666666666,0.0,-0.16666666666666666,0.16666666666666666,0.0,0.0
3581,0.0,0.0,-0.16666666666666666,0.16666666666666666,0.16666666666666666,-0.16666666666666666,0.0,0.16666666666666666,-0.16666666666666666,-0.16666666666666666,-0.16666666666666666,-0.16666666666666666,0.0,0.16666666666666666,0.16666666666666666,0.0,0.0,0.16666666666666666,0.0,0.0
3582,0.0,0.0,-0.16666666666666666,0.16666666666666666,0.16666666666666666,-0.16666666666666666,0.0,0.16666666666666666,0.0,-0.16666666666666666,-0.16666666666666666,-0.16666666666666666,-0.16666666666666666,0.16666666666666666,0.16666666666666666,0.0,0.0,0.16666666666666666,0.0,0.0
3583,0.0,0.0,0.0,0.2,0.2,0.0,0.0,-0.2,0.0,-0.2,-0.2,0.0,-0.2,0.0,0.2,0.2,0.0,0.2,0.0,-0.2
3584,0.0,0.0,0.0,0.2,0.2,0.0,0.2,-0.2,0.0,-0.2,-0.2,0.0,-0.2,0.0,0.2,0.0,0.0,0.2,0.0,-0.2
3585,0.0,-0.16666666666666666,0.0,0.16666666666666666,0.16666666666666666,-0.16666666666666666,0.0,0.16666666666666666,0.0,-0.16666666666666666,-0.16666666666666666,-0.16666666666666666,-0.16666666666666666,0.16666666666666666,0.16666666666666666,0.0,0.0,0.16666666666666666,0.0,0.0
3586,0.0,-0.16666666666666666,0.0,0.16666666666666666,0.16666666666666666,-0.16666666666666666,0.0,0.16666666666666666,0.0,-0.16666666666666666,-0.16666666666666666,-0.16666666666666666,-0.16666666666666666,0.0,0.16666666666666666,0.0,0.0,0.16666666666666666,0.16666666666666666,0.0
3587,0.0,0.0,0.0,0.2,0.2,-0.2,0.0,0.0,0.0,-0.2,-0.2,0.2,-0.2,0.0,0.2,0.0,0.0,0.2,0.0,-0.2
3588,0.0,-0.16666666666666666,0.0,0.16666666666666666,0.16666666666666666,-0.16666666666666666,0.0,0.16666666666666666,0.0,-0.16666666666666666,-0.16666666666666666,-0.16666666666666666,-0.16666666666666666,0.0,0.16666666666666666,0.0,0.0,0.16666666666666666,0.16666666666666666,0.0
3589,0.0,-0.16666666666666666,0.0,0.16666666666666666,0.16666666666666666,-0.16666666666666666,0.0,0.16666666666666666,0.0,-0.16666666666666666,-0.16666666666666666,-0.16666666666666666,-0.16666666666666666,0.0,0.16666666666666666,0.16666666666666666,0.0,0.16666666666666666,0.0,0.0
3590,0.0,-0.16666666666666666,0.0,0.16666666666666666,0.16666666666666666,-0.16666666666666666,0.0,0.16666666666666666,0.0,-0.16666666666666666,-0.16666666666666666,-0.16666666666666666,-0.16666666666666666,0.0,0.16666666666666666,0.16666666666666666,0.0,0.16666666666666666,0.0,0.0
3591,0.0,-0.16666666666666666,0.0,0.16666666666666666,0.16666666666666666,-0.16666666666666666,0.0,0.16666666666666666,0.0,-0.16666666666666666,-0.16666666666666666,-0.16666666666666666,0.0,0.0,0.16666666666666666,0.16666666666666666,0.0,0.16666666666666666,-0.16666666666666666,0.0
3592,0.0,-0.16666666666666666,0.0,0.16666666666666666,0.16666666666666666,-0.16666666666666666,0.0,0.16666666666666666,0.0,-0.16666666666666666,-0.16666666666666666,-0.16666666666666666,0.0,0.0,0.16666666666666666,0.16666666666666666,0.0,0.16666666666666666,-0.16666666666666666,0.0
3593,0.0,0.0,0.0,0.16666666666666666,0.16666666666666666,-0.16666666666666666,0.0,0.16666666666666666,0.0,-0.16666666666666666,-0.16666666666666666,-0.16666666666666666,0.0,-0.16666666666666666,0.16666666666666666,0.0,0.16666666666666666,0.16666666666666666,-0.16666666666666666,0.0
3594,0.0,0.0,0.0,0.16666666666666666,0.16666666666666666,-0.16666666666666666,0.0,0.16666666666666666,0.0,-0.16666666666666666,-0.16666666666666666,-0.16666666666666666,0.0,-0.16666666666666666,0.16666666666666666,0.0,0.16666666666666666,0.16666666666666666,-0.16666666666666666,0.0
3595,0.0,0.0,0.0,0.16666666666666666,0.16666666666666666,-0.16666666666666666,0.0,0.16666666666666666,0.0,-0.16666666666666666,-0.16666666666666666,-0.16666666666666666,0.0,-0.16666666666666666,0.16666666666666666,0.0,0.0,0.16666666666666666,-0.16666666666666666,0.16666666666666666
3596,0.0,0.0,0.0,0.16666666666666666,0.0,-0.16666666666666666,0.0,0.16666666666666666,0.0,-0.16666666666666666,-0.16666666666666666,-0.16666666666666666,0.0,-0.16666666666666666,0.16666666666666666,0.0,0.16666666666666666,0.16666666666666666,-0.16666666666666666,0.16666666666666666
3597,0.0,0.0,0.0,0.16666666666666666,0.0,-0.16666666666666666,0.0,0.16666666666666666,0.0,-0.16666666666666666,-0.16666666666666666,-0.16666666666666666,0.0,-0.16666666666666666,0.16666666666666666,0.0,0.16666666666666666,0.16666666666666666,-0.16666666666666666,0.16666666666666666
3598,0.0,0.0,0.0,0.16666666666666666,0.0,-0.16666666666666666,0.0,0.16666666666666666,0.0,-0.16666666666666666,-0.16666666666666666,-0.16666666666666666,0.0,-0.16666666666666666,0.16666666666666666,0.0,0.16666666666666666,0.16666666666666666,-0.16666666666666666,0.16666666666666666
3599,0.0,0.0,0.0,0.16666666666666666,0.0,-0.16666666666666666,0.0,0.16666666666666666,-0.16666666666666666,-0.16666666666666666,-0.16666666666666666,0.0,-0.16666666666666666,0.0,0.16666666666666666,0.0,0.16666666666666666,0.16666666666666666,-0.16666666666666666,0.16666666666666666
3600,0.0,0.0,0.0,0.16666666666666666,0.0,-0.16666666666666666,0.0,0.16666666666666666,-0.16666666666666666,-0.16666666666666666,-0.16666666666666666,0.0,-0.16666666666666666,0.0,0.16666666666666666,0.0,0.16666666666666666,0.16666666666666666,-0.16666666666666666,0.16666666666666666
3601,0.0,0.0,0.0,0.16666666666666666,0.0,-0.16666666666666666,0.0,0.16666666666666666,-0.16666666666666666,-0.16666666666666666,-0.16666666666666666,0.0,-0.16666666666666666,0.0,0.16666666666666666,0.0,0.16666666666666666,0.16666666666666666,-0.16666666666666666,0.16666666666666666
3602,0.0,0.16666666666666666,0.0,0.16666666666666666,0.0,-0.16666666666666666,0.0,0.0,-0.16666666666666666,-0.16666666666666666,-0.16666666666666666,0.0,-0.16666666666666666,-0.16666666666666666,0.16666666666666666,0.0,0.16666666666666666,0.16666666666666666,0.0,0.16666666666666666
3603,0.0,0.16666666666666666,0.0,0.16666666666666666,0.0,-0.16666666666666666,0.0,0.0,-0.16666666666666666,-0.16666666666666666,0.0,0.16666666666666666,-0.16666666666666666,-0.16666666666666666,0.16666666666666666,0.0,0.0,0.16666666666666666,-0.16666666666666666,0.16666666666666666
3604,0.0,0.16666666666666666,0.0,0.16666666666666666,0.0,0.0,-0.16666666666666666,0.0,-0.16666666666666666,-0.16666666666666666,0.0,0.16666666666666666,-0.16666666666666666,-0.16666666666666666,0.16666666666666666,0.0,0.0,0.16666666666666666,-0.16666666666666666,0.16666666666666666
3605,0.0,0.16666666666666666,0.0,0.16666666666666666,0.0,0.0,-0.16666666666666666,0.0,-0.16666666666666666,-0.16666666666666666,0.0,0.16666666666666666,-0.16666666666666666,-0.16666666666666666,0.16666666666666666,0.0,0.0,0.16666666666666666,-0.16666666666666666,0.16666666666666666
3606,0.0,0.16666666666666666,0.0,0.16666666666666666,0.0,0.0,-0.16666666666666666,0.0,-0.16666666666666666,-0.16666666666666666,0.0,0.16666666666666666,-0.16666666666666666,-0.16666666666666666,0.16666666666666666,0.0,0.0,0.16666666666666666,-0.16666666666666666,0.16666666666666666
3607,0.0,0.16666666666666666,-0.16666666666666666,0.16666666666666666,0.0,0.0,-0.16666666666666666,0.0,-0.16666666666666666,-0.16666666666666666,0.0,0.16666666666666666,-0.16666666666666666,0.0,0.16666666666666666,0.0,0.0,0.16666666666666666,-0.16666666666666666,0.16666666666666666
3608,0.0,0.16666666666666666,-0.16666666666666666,0.16666666666666666,0.0,0.0,-0.16666666666666666,0.0,-0.16666666666666666,-0.16666666666666666,0.0,0.16666666666666666,-0.16666666666666666,0.0,0.16666666666666666,0.0,0.0,0.16666666666666666,-0.16666666666666666,0.16666666666666666
3609,0.0,0.16666666666666666,-0.16666666666666666,0.16666666666666666,0.0,0.0,-0.16666666666666666,0.0,-0.16666666666666666,-0.16666666666666666,0.0,0.16666666666666666,-0.16666666666666666,0.0,0.16666666666666666,0.0,0.0,0.16666666666666666,-0.16666666666666666,0.16666666666666666
3610,0.0,0.16666666666666666,-0.16666666666666666,0.0,0.0,-0.16666666666666666,-0.16666666666666666,0.0,0.0,-0.16666666666666666,0.0,0.16666666666666666,-0.16666666666666666,0.0,0.16666666666666666,0.0,0.16666666666666666,0.16666666666666666,-0.16666666666666666,0.16666666666666666
3611,0.0,0.16666666666666666,-0.16666666666666666,0.0,0.0,-0.16666666666666666,-0.16666666666666666,0.0,0.0,-0.16666666666666666,0.0,0.16666666666666666,-0.16666666666666666,0.0,0.16666666666666666,0.0,0.16666666666666666,0.16666666666666666,-0.16666666666666666,0.16666666666666666
3612,0.0,0.16666666666666666,-0.16666666666666666,0.0,0.0,-0.16666666666666666,-0.16666666666666666,0.0,0.0,-0.16666666666666666,0.0,0.16666666666666666,-0.16666666666666666,0.0,0.16666666666666666,0.0,0.16666666666666666,0.16666666666666666,-0.16666666666666666,0.16666666666666666
3613,0.0,0.16666666666666666,0.0,0.0,0.0,-0.16666666666666666,-0.16666666666666666,0.0,0.0,-0.16666666666666666,-0.16666666666666666,0.16666666666666666,-0.16666666666666666,0.0,0.16666666666666666,0.0,0.16666666666666666,0.16666666666666666,-0.16666666666666666,0.16666666666666666
3614,0.0,0.16666666666666666,0.0,0.16666666666666666,0.0,-0.16666666666666666,-0.16666666666666666,0.0,0.0,-0.16666666666666666,-0.16666666666666666,0.16666666666666666,-0.16666666666666666,0.0,0.16666666666666666,0.0,0.0,0.16666666666666666,-0.16666666666666666,0.16666666666666666
3615,0.0,0.16666666666666666,0.0,0.16666666666666666,0.0,-0.16666666666666666,-0.16666666666666666,0.0,0.0,-0.16666666666666666,-0.16666666666666666,0.16666666666666666,-0.16666666666666666,0.0,0.16666666666666666,0.0,0.0,0.16666666666666666,-0.16666666666666666,0.16666666666666666
3616,0.0,0.16666666666666666,0.0,0.16666666666666666,0.0,-0.16666666666666666,-0.16666666666666666,0.0,0.0,-0.16666666666666666,0.0,0.16666666666666666,-0.16666666666666666,0.0,0.16666666666666666,-0.16666666666666666,0.0,0.16666666666666666,-0.16666666666666666,0.16666666666666666
3617,0.0,0.16666666666666666,0.0,0.16666666666666666,0.0,-0.16666666666666666,-0.16666666666666666,0.0,0.0,-0.16666666666666666,0.0,0.16666666666666666,-0.16666666666666666,0.0,0.16666666666666666,-0.16666666666666666,0.0,0.16666666666666666,-0.16666666666666666,0.16666666666666666
3618,0.0,0.16666666666666666,0.0,0.0,0.0,-0.16666666666666666,-0.16666666666666666,0.0,0.0,-0.16666666666666666,0.0,0.16666666666666666,-0.16666666666666666,0.0,0.16666666666666666,-0.16666666666666666,0.16666666666666666,0.16666666666666666,-0.16666666666666666,0.16666666666666666
3619,0.0,0.16666666666666666,0.0,0.0,0.0,-0.16666666666666666,-0.16666666666666666,0.0,0.0,-0.16666666666666666,0.0,0.16666666666666666,-0.16666666666666666,0.0,0.16666666666666666,-0.16666666666666666,0.16666666666666666,0.16666666666666666,-0.16666666666666666,0.16666666666666666
3620,0.0,0.16666666666666666,0.0,0.0,0.0,-0.16666666666666666,0.0,0.0,-0.16666666666666666,-0.16666666666666666,0.0,0.16666666666666666,-0.16666666666666666,0.0,0.16666666666666666,-0.16666666666666666,0.16666666666666666,0.16666666666666666,-0.16666666666666666,0.16666666666666666
3621,0.0,0.2,0.0,-0.2,0.0,0.0,0.0,-0.2,0.0,0.0,0.0,0.2,0.2,0.0,0.2,-0.2,-0.2,-0.2,0.0,0.2
3622,0.0,0.2,-0.2,-0.2,0.0,0.0,0.2,-0.2,0.0,0.0,0.0,0.2,0.2,0.0,0.0,-0.2,0.0,-0.2,0.0,0.2
3623,0.0,0.2,-0.2,-0.2,0.0,0.0,0.2,-0.2,0.2,0.0,0.0,0.2,0.2,0.0,0.0,-0.2,0.0,-0.2,0.0,0.0
3624,0.0,0.2,0.0,-0.2,0.0,0.0,0.2,-0.2,0.2,0.0,0.0,0.2,0.2,0.0,0.0,-0.2,0.0,-0.2,0.0,-0.2
3625,0.0,0.2,0.0,-0.2,0.0,0.0,0.2,-0.2,0.2,0.0,0.0,0.2,0.2,0.0,0.0,-0.2,0.0,-0.2,0.0,-0.2
3626,0.0,0.2,-0.2,0.0,0.2,0.0,0.2,-0.2,0.0,-0.2,0.0,0.2,0.2,0.0,0.0,-0.2,0.0,0.0,0.0,-0.2
3627,0.0,0.2,-0.2,0.0,0.2,0.0,0.2,-0.2,0.0,-0.2,0.0,0.2,0.2,0.0,0.0,-0.2,0.0,0.0,0.0,-0.2
3628,0.0,0.2,-0.2,0.0,0.2,0.0,0.2,0.0,0.0,-0.2,0.0,0.2,0.2,0.0,0.0,-0.2,-0.2,0.0,0.0,-0.2
3629,0.0,0.2,0.0,0.0,0.2,-0.2,0.2,0.0,-0.2,0.0,0.0,0.2,0.2,0.0,0.0,-0.2,-0.2,0.0,0.0,-0.2
3630,0.0,0.2,0.0,0.0,0.2,-0.2,0.2,0.0,-0.2,0.0,0.0,0.2,0.2,0.0,0.0,-0.2,-0.2,0.0,0.0,-0.2
3631,0.0,0.16666666666666666,-0.16666666666666666,0.0,0.16666666666666666,-0.16666666666666666,0.0,0.0,-0.16666666666666666,-0.16666666666666666,0.0,0.16666666666666666,0.0,0.0,0.16666666666666666,-0.16666666666666666,0.0,0.16666666666666666,-0.16666666666666666,0.16666666666666666
3632,0.0,0.16666666666666666,-0.16666666666666666,0.0,0.16666666666666666,-0.16666666666666666,0.0,0.0,-0.16666666666666666,-0.16666666666666666,0.0,0.16666666666666666,0.0,0.0,0.16666666666666666,-0.16666666666666666,0.0,0.16666666666666666,-0.16666666666666666,0.16666666666666666
3633,0.0,0.16666666666666666,-0.16666666666666666,0.0,0.16666666666666666,-0.16666666666666666,0.0,0.0,-0.16666666666666666,-0.16666666666666666,0.0,0.16666666666666666,0.16666666666666666,0.0,0.0,-0.16666666666666666,0.0,0.16666666666666666,-0.16666666666666666,0.16666666666666666
3634,0.0,0.16666666666666666,-0.16666666666666666,-0.16666666666666666,0.16666666666666666,-0.16666666666666666,0.0,0.0,-0.16666666666666666,0.0,0.0,0.0,0.16666666666666666,0.0,0.16666666666666666,-0.16666666666666666,0.0,0.16666666666666666,-0.16666666666666666,0.16666666666666666
3635,0.0,0.16666666666666666,-0.16666666666666666,-0.16666666666666666,0.16666666666666666,-0.16666666666666666,0.0,0.0,-0.16666666666666666,0.0,0.16666666666666666,0.0,0.16666666666666666,0.0,0.0,-0.16666666666666666,0.0,0.16666666666666666,-0.16666666666666666,0.16666666666666666
3636,0.0,0.16666666666666666,-0.16666666666666666,-0.16666666666666666,0.16666666666666666,-0.16666666666666666,0.0,0.0,-0.16666666666666666,0.0,0.16666666666666666,0.0,0.16666666666666666,0.0,0.0,-0.16666666666666666,0.0,0.16666666666666666,-0.16666666666666666,0.16666666666666666
3637,0.0,0.16666666666666666,-0.16666666666666666,-0.16666666666666666,0.16666666666666666,-0.16666666666666666,0.0,0.0,-0.16666666666666666,0.0,0.16666666666666666,0.0,0.16666666666666666,0.0,0.16666666666666666,-0.16666666666666666,0.0,0.0,-0.16666666666666666,0.16666666666666666
3638,0.0,0.16666666666666666,-0.16666666666666666,-0.16666666666666666,0.16666666666666666,-0.16666666666666666,0.0,0.0,-0.16666666666666666,0.0,0.16666666666666666,0.0,0.16666666666666666,0.0,0.16666666666666666,-0.16666666666666666,0.0,0.0,-0.16666666666666666,0.16666666666666666
3639,0.0,0.2,-0.2,0.0,0.2,-0.2,0.2,0.0,0.0,0.0,0.0,-0.2,0.2,0.0,0.0,0.0,0.0,0.2,-0.2,-0.2
3640,0.0,0.2,-0.2,0.0,0.2,-0.2,0.2,0.0,0.0,0.0,0.0,-0.2,0.2,0.0,0.0,0.0,0.0,0.2,-0.2,-0.2
3641,0.0,0.0,-0.2,0.0,0.2,-0.2,0.2,0.0,0.0,0.0,0.0,-0.2,0.2,0.0,0.0,0.0,0.2,0.2,-0.2,-0.2
3642,0.0,0.16666666666666666,-0.16666666666666666,-0.16666666666666666,0.16666666666666666,0.0,0.0,0.0,-0.16666666666666666,-0.16666666666666666,0.16666666666666666,0.0,0.16666666666666666,0.0,0.16666666666666666,-0.16666666666666666,0.0,0.0,-0.16666666666666666,0.16666666666666666
3643,0.0,0.16666666666666666,-0.16666666666666666,0.0,0.16666666666666666,-0.16666666666666666,0.0,0.0,-0.16666666666666666,-0.16666666666666666,0.16666666666666666,0.0,0.16666666666666666,0.0,0.0,-0.16666666666666666,0.0,0.16666666666666666,-0.16666666666666666,0.16666666666666666
3644,0.0,0.16666666666666666,-0.16666666666666666,0.0,0.16666666666666666,-0.16666666666666666,0.0,0.0,-0.16666666666666666,-0.16666666666666666,0.16666666666666666,0.0,0.16666666666666666,0.0,0.0,-0.16666666666666666,0.0,0.16666666666666666,-0.16666666666666666,0.16666666666666666
3645,0.0,0.16666666666666666,-0.16666666666666666,0.0,0.16666666666666666,-0.16666666666666666,0.0,0.0,-0.16666666666666666,-0.16666666666666666,0.16666666666666666,0.0,0.16666666666666666,0.0,0.0,-0.16666666666666666,0.0,0.16666666666666666,-0.16666666666666666,0.16666666666666666
3646,0.0,0.16666666666666666,-0.16666666666666666,0.0,0.16666666666666666,-0.16666666666666666,0.0,0.0,-0.16666666666666666,-0.16666666666666666,0.16666666666666666,0.0,0.16666666666666666,0.0,0.0,-0.16666666666666666,0.0,0.16666666666666666,-0.16666666666666666,0.16666666666666666
3647,0.0,0.16666666666666666,-0.16666666666666666,0.0,0.16666666666666666,-0.16666666666666666,0.0,0.0,-0.16666666666666666,-0.16666666666666666,0.16666666666666666,0.0,0.16666666666666666,0.0,0.0,-0.16666666666666666,0.0,0.16666666666666666,-0.16666666666666666,0.16666666666666666
3648,0.0,0.16666666666666666,-0.16666666666666666,0.0,0.16666666666666666,-0.16666666666666666,0.0,0.0,-0.16666666666666666,0.0,0.16666666666666666,-0.16666666666666666,0.16666666666666666,0.0,0.16666666666666666,-0.16666666666666666,0.0,0.16666666666666666,-0.16666666666666666,0.0
3649,0.0,0.16666666666666666,-0.16666666666666666,0.0,0.16666666666666666,-0.16666666666666666,0.0,0.0,0.0,0.0,0.16666666666666666,-0.16666666666666666,0.16666666666666666,0.0,0.16666666666666666,-0.16666666666666666,0.0,0.16666666666666666,-0.16666666666666666,-0.16666666666666666
3650,0.0,0.16666666666666666,-0.16666666666666666,0.0,0.16666666666666666,-0.16666666666666666,0.0,0.0,0.0,0.0,0.16666666666666666,-0.16666666666666666,0.16666666666666666,0.0,0.16666666666666666,-0.16666666666666666,0.0,0.16666666666666666,-0.16666666666666666,-0.16666666666666666
3651,0.0,0.16666666666666666,-0.16666666666666666,0.0,0.16666666666666666,-0.16666666666666666,0.0,0.0,0.0,0.0,0.0,-0.16666666666666666,0.16666666666666666,0.0,0.16666666666666666,-0.16666666666666666,0.16666666666666666,0.16666666666666666,-0.16666666666666666,-0.16666666666666666
3652,0.0,0.16666666666666666,-0.16666666666666666,0.0,0.16666666666666666,-0.16666666666666666,0.0,0.0,0.0,0.0,0.0,-0.16666666666666666,0.16666666666666666,0.16666666666666666,0.0,-0.16666666666666666,0.16666666666666666,0.16666666666666666,-0.16666666666666666,-0.16666666666666666
3653,0.0,0.16666666666666666,-0.16666666666666666,0.0,0.16666666666666666,-0.16666666666666666,0.0,0.0,0.0,0.0,0.0,-0.16666666666666666,0.16666666666666666,0.16666666666666666,0.0,-0.16666666666666666,0.16666666666666666,0.16666666666666666,-0.16666666666666666,-0.16666666666666666
3654,0.0,0.16666666666666666,-0.16666666666666666,0.0,0.16666666666666666,-0.16666666666666666,0.0,0.0,-0.16666666666666666,0.0,0.0,-0.16666666666666666,0.16666666666666666,0.16666666666666666,0.0,0.0,0.16666666666666666,0.16666666666666666,-0.16666666666666666,-0.16666666666666666
3655,0.0,0.16666666666666666,-0.16666666666666666,0.0,0.16666666666666666,-0.16666666666666666,0.0,0.0,-0.16666666666666666,0.0,0.0,-0.16666666666666666,0.16666666666666666,0.16666666666666666,0.0,0.16666666666666666,0.0,0.16666666666666666,-0.16666666666666666,-0.16666666666666666
3656,0.0,0.16666666666666666,-0.16666666666666666,0.0,0.16666666666666666,-0.16666666666666666,0.0,0.0,-0.16666666666666666,0.0,0.0,-0.16666666666666666,0.16666666666666666,0.16666666666666666,0.0,0.16666666666666666,0.0,0.16666666666666666,-0.16666666666666666,-0.16666666666666666
3657,0.0,0.16666666666666666,-0.16666666666666666,0.0,0.16666666666666666,-0.16666666666666666,0.0,0.0,-0.16666666666666666,0.0,0.0,-0.16666666666666666,0.16666666666666666,0.16666666666666666,0.0,0.16666666666666666,0.0,0.16666666666666666,-0.16666666666666666,-0.16666666666666666
3658,-0.16666666666666666,0.16666666666666666,-0.16666666666666666,0.0,0.16666666666666666,-0.16666666666666666,0.0,0.0,0.0,0.0,0.0,-0.16666666666666666,0.16666666666666666,0.16666666666666666,0.0,0.16666666666666666,0.0,0.16666666666666666,-0.16666666666666666,-0.16666666666666666
3659,-0.16666666666666666,0.16666666666666666,-0.16666666666666666,0.0,0.16666666666666666,-0.16666666666666666,0.0,0.0,0.0,0.0,0.0,-0.16666666666666666,0.16666666666666666,0.16666666666666666,0.0,0.16666666666666666,0.0,0.16666666666666666,-0.16666666666666666,-0.16666666666666666
3660,-0.16666666666666666,0.16666666666666666,-0.16666666666666666,0.0,0.16666666666666666,-0.16666666666666666,0.0,0.0,0.0,-0.16666666666666666,0.0,0.0,0.16666666666666666,0.16666666666666666,0.0,0.16666666666666666,0.0,0.16666666666666666,-0.16666666666666666,-0.16666666666666666
3661,-0.16666666666666666,0.16666666666666666,-0.16666666666666666,0.0,0.16666666666666666,-0.16666666666666666,0.0,0.0,0.0,-0.16666666666666666,0.0,0.0,0.16666666666666666,0.16666666666666666,0.0,0.16666666666666666,0.0,0.16666666666666666,-0.16666666666666666,-0.16666666666666666
3662,-0.16666666666666666,0.16666666666666666,-0.16666666666666666,0.0,0.16666666666666666,-0.16666666666666666,0.0,0.0,0.0,-0.16666666666666666,0.0,0.0,0.16666666666666666,0.16666666666666666,0.0,0.16666666666666666,0.0,0.16666666666666666,-0.16666666666666666,-0.16666666666666666
3663,-0.16666666666666666,0.16666666666666666,-0.16666666666666666,0.0,0.16666666666666666,-0.16666666666666666,0.0,0.0,0.0,-0.16666666666666666,0.0,0.0,0.16666666666666666,0.16666666666666666,0.0,0.16666666666666666,0.0,0.16666666666666666,-0.16666666666666666,-0.16666666666666666
3664,-0.16666666666666666,0.16666666666666666,-0.16666666666666666,0.0,0.16666666666666666,-0.16666666666666666,0.0,0.0,0.0,-0.16666666666666666,0.0,0.0,0.16666666666666666,0.16666666666666666,0.0,0.16666666666666666,0.0,0.16666666666666666,-0.16666666666666666,-0.16666666666666666
3665,-0.16666666666666666,0.16666666666666666,-0.16666666666666666,0.0,0.16666666666666666,-0.16666666666666666,0.0,0.0,0.0,-0.16666666666666666,0.0,0.0,0.16666666666666666,0.16666666666666666,0.0,0.16666666666666666,0.0,0.16666666666666666,-0.16666666666666666,-0.16666666666666666
3666,-0.16666666666666666,0.16666666666666666,-0.16666666666666666,0.0,0.16666666666666666,-0.16666666666666666,0.0,0.0,0.0,-0.16666666666666666,0.0,0.0,0.16666666666666666,0.16666666666666666,0.0,0.16666666666666666,0.0,0.16666666666666666,-0.16666666666666666,-0.16666666666666666
3667,0.0,0.16666666666666666,-0.16666666666666666,0.0,0.16666666666666666,-0.16666666666666666,0.0,0.0,-0.16666666666666666,-0.16666666666666666,0.0,0.0,0.16666666666666666,0.0,0.0,0.16666666666666666,0.16666666666666666,0.16666666666666666,-0.16666666666666666,-0.16666666666666666
3668,0.0,0.0,-0.16666666666666666,0.0,0.16666666666666666,-0.16666666666666666,0.0,0.0,-0.16666666666666666,-0.16666666666666666,0.0,0.0,0.16666666666666666,0.16666666666666666,0.0,0.16666666666666666,0.16666666666666666,0.16666666666666666,-0.16666666666666666,-0.16666666666666666
3669,0.0,0.0,-0.16666666666666666,0.0,0.16666666666666666,-0.16666666666666666,0.16666666666666666,0.0,0.0,-0.16666666666666666,0.0,-0.16666666666666666,0.16666666666666666,0.0,0.0,0.16666666666666666,0.16666666666666666,0.16666666666666666,-0.16666666666666666,-0.16666666666666666
3670,0.0,0.0,-0.16666666666666666,0.0,0.16666666666666666,-0.16666666666666666,0.0,0.0,0.0,-0.16666666666666666,0.0,-0.16666666666666666,0.16666666666666666,0.16666666666666666,0.0,0.16666666666666666,0.16666666666666666,0.16666666666666666,-0.16666666666666666,-0.16666666666666666
3671,0.0,0.0,-0.16666666666666666,0.0,0.16666666666666666,-0.16666666666666666,0.0,0.0,0.0,-0.16666666666666666,0.0,-0.16666666666666666,0.16666666666666666,0.16666666666666666,0.0,0.16666666666666666,0.16666666666666666,0.16666666666666666,-0.16666666666666666,-0.16666666666666666
3672,0.0,0.0,-0.16666666666666666,0.0,0.16666666666666666,-0.16666666666666666,0.0,0.0,-0.16666666666666666,-0.16666666666666666,0.0,-0.16666666666666666,0.16666666666666666,0.16666666666666666,0.0,0.16666666666666666,0.16666666666666666,0.16666666666666666,-0.16666666666666666,0.0
3673,0.0,0.0,-0.16666666666666666,0.0,0.16666666666666666,-0.16666666666666666,0.0,0.0,-0.16666666666666666,-0.16666666666666666,0.16666666666666666,-0.16666666666666666,0.16666666666666666,0.0,0.0,0.16666666666666666,0.16666666666666666,0.16666666666666666,-0.16666666666666666,0.0
3674,0.0,0.0,-0.16666666666666666,0.0,0.16666666666666666,-0.16666666666666666,-0.16666666666666666,0.0,-0.16666666666666666,0.0,0.16666666666666666,-0.16666666666666666,0.16666666666666666,0.0,0.0,0.16666666666666666,0.16666666666666666,0.16666666666666666,-0.16666666666666666,0.0
3675,0.0,0.0,-0.16666666666666666,0.0,0.16666666666666666,-0.16666666666666666,-0.16666666666666666,0.0,-0.16666666666666666,0.0,0.16666666666666666,-0.16666666666666666,0.16666666666666666,0.0,0.0,0.16666666666666666,0.16666666666666666,0.16666666666666666,-0.16666666666666666,0.0
3676,0.0,0.0,-0.16666666666666666,0.0,0.16666666666666666,-0.16666666666666666,-0.16666666666666666,0.0,-0.16666666666666666,0.0,0.16666666666666666,-0.16666666666666666,0.16666666666666666,0.0,0.0,0.16666666666666666,0.16666666666666666,0.16666666666666666,-0.16666666666666666,0.0
3677,0.0,0.0,-0.16666666666666666,0.0,0.16666666666666666,-0.16666666666666666,-0.16666666666666666,0.0,0.0,0.0,0.16666666666666666,-0.16666666666666666,0.16666666666666666,0.16666666666666666,-0.16666666666666666,0.16666666666666666,0.16666666666666666,0.0,-0.16666666666666666,0.0
3678,0.0,-0.16666666666666666,-0.16666666666666666,0.0,0.16666666666666666,-0.16666666666666666,-0.16666666666666666,0.0,0.0,0.0,0.16666666666666666,-0.16666666666666666,0.16666666666666666,0.16666666666666666,0.0,0.16666666666666666,0.16666666666666666,0.0,-0.16666666666666666,0.0
3679,0.0,0.0,-0.16666666666666666,-0.16666666666666666,0.16666666666666666,-0.16666666666666666,-0.16666666666666666,0.0,0.0,0.0,0.16666666666666666,-0.16666666666666666,0.16666666666666666,0.16666666666666666,0.0,0.16666666666666666,0.16666666666666666,0.0,-0.16666666666666666,0.0
3680,0.2,0.0,-0.2,-0.2,-0.2,0.0,0.2,-0.2,0.0,0.0,0.2,0.0,0.0,0.0,0.0,0.2,0.2,-0.2,0.0,0.0
3681,0.0,-0.16666666666666666,-0.16666666666666666,-0.16666666666666666,0.0,0.0,-0.16666666666666666,0.0,0.16666666666666666,0.0,0.16666666666666666,-0.16666666666666666,0.16666666666666666,0.16666666666666666,0.0,0.16666666666666666,0.16666666666666666,0.0,-0.16666666666666666,0.0
3682,0.0,0.0,-0.16666666666666666,-0.16666666666666666,0.0,0.0,0.0,-0.16666666666666666,0.16666666666666666,0.0,0.16666666666666666,-0.16666666666666666,0.16666666666666666,0.16666666666666666,0.0,0.16666666666666666,0.16666666666666666,-0.16666666666666666,-0.16666666666666666,0.0
3683,0.0,0.0,-0.16666666666666666,-0.16666666666666666,0.0,0.0,0.0,-0.16666666666666666,0.0,0.0,0.16666666666666666,-0.16666666666666666,0.16666666666666666,0.16666666666666666,0.0,0.16666666666666666,0.16666666666666666,-0.16666666666666666,-0.16666666666666666,0.16666666666666666
3684,0.0,0.0,-0.16666666666666666,-0.16666666666666666,-0.16666666666666666,0.16666666666666666,0.0,-0.16666666666666666,0.0,0.0,0.16666666666666666,0.0,0.16666666666666666,0.16666666666666666,0.0,0.16666666666666666,0.16666666666666666,-0.16666666666666666,-0.16666666666666666,0.0
3685,0.0,0.0,-0.16666666666666666,-0.16666666666666666,-0.16666666666666666,0.0,0.0,-0.16666666666666666,0.0,0.0,0.16666666666666666,0.16666666666666666,0.16666666666666666,0.16666666666666666,-0.16666666666666666,0.16666666666666666,0.16666666666666666,-0.16666666666666666,0.0,0.0
3686,0.0,0.0,-0.16666666666666666,-0.16666666666666666,-0.16666666666666666,0.0,-0.16666666666666666,0.0,0.0,0.0,0.16666666666666666,0.16666666666666666,0.16666666666666666,0.16666666666666666,-0.16666666666666666,0.16666666666666666,0.16666666666666666,-0.16666666666666666,0.0,0.0
3687,0.0,0.0,-0.16666666666666666,-0.16666666666666666,-0.16666666666666666,0.0,-0.16666666666666666,0.0,0.0,0.0,0.16666666666666666,0.0,0.16666666666666666,0.16666666666666666,-0.16666666666666666,0.16666666666666666,0.16666666666666666,-0.16666666666666666,0.16666666666666666,0.0
3688,0.0,0.0,-0.16666666666666666,-0.16666666666666666,-0.16666666666666666,0.0,-0.16666666666666666,0.0,0.16666666666666666,0.0,0.16666666666666666,0.0,0.16666666666666666,0.16666666666666666,-0.16666666666666666,0.16666666666666666,0.0,-0.16666666666666666,0.16666666666666666,0.0
3689,0.0,-0.16666666666666666,-0.16666666666666666,0.0,-0.16666666666666666,0.0,-0.16666666666666666,0.16666666666666666,0.16666666666666666,0.0,0.0,0.0,0.16666666666666666,0.16666666666666666,-0.16666666666666666,0.16666666666666666,0.0,-0.16666666666666666,0.16666666666666666,0.0
3690,0.0,0.0,-0.16666666666666666,0.0,-0.16666666666666666,0.0,-0.16666666666666666,0.16666666666666666,0.16666666666666666,0.0,0.0,0.0,0.16666666666666666,0.16666666666666666,-0.16666666666666666,0.16666666666666666,-0.16666666666666666,-0.16666666666666666,0.16666666666666666,0.0
3691,0.0,0.0,-0.16666666666666666,0.0,-0.16666666666666666,0.0,-0.16666666666666666,0.16666666666666666,0.16666666666666666,0.0,0.0,0.16666666666666666,0.16666666666666666,0.0,-0.16666666666666666,0.16666666666666666,-0.16666666666666666,-0.16666666666666666,0.16666666666666666,0.0
3692,0.0,0.0,-0.16666666666666666,0.0,-0.16666666666666666,0.0,-0.16666666666666666,0.16666666666666666,0.16666666666666666,0.0,0.0,0.16666666666666666,0.16666666666666666,0.16666666666666666,-0.16666666666666666,0.16666666666666666,-0.16666666666666666,-0.16666666666666666,0.0,0.0
3693,0.0,0.0,0.0,-0.16666666666666666,-0.16666666666666666,0.0,-0.16666666666666666,0.16666666666666666,0.16666666666666666,0.0,0.0,0.16666666666666666,0.16666666666666666,0.16666666666666666,-0.16666666666666666,0.16666666666666666,-0.16666666666666666,-0.16666666666666666,0.0,0.0
3694,0.0,0.0,0.0,-0.16666666666666666,-0.16666666666666666,0.0,-0.16666666666666666,0.16666666666666666,0.16666666666666666,0.0,0.0,0.16666666666666666,0.16666666666666666,0.16666666666666666,-0.16666666666666666,0.16666666666666666,-0.16666666666666666,-0.16666666666666666,0.0,0.0
3695,0.0,0.0,0.0,0.0,-0.16666666666666666,0.16666666666666666,-0.16666666666666666,0.16666666666666666,0.0,0.0,0.0,0.16666666666666666,0.16666666666666666,0.16666666666666666,-0.16666666666666666,0.16666666666666666,-0.16666666666666666,-0.16666666666666666,-0.16666666666666666,0.0
3696,0.0,0.0,0.0,0.0,-0.16666666666666666,0.16666666666666666,-0.16666666666666666,0.16666666666666666,0.0,0.0,0.0,0.16666666666666666,0.16666666666666666,0.16666666666666666,-0.16666666666666666,0.16666666666666666,-0.16666666666666666,-0.16666666666666666,-0.16666666666666666,0.0
3697,0.2,0.0,0.0,0.0,0.0,0.2,-0.2,0.2,0.0,0.0,-0.2,0.2,0.2,0.0,-0.2,0.0,-0.2,0.0,-0.2,0.0
3698,0.0,0.0,0.0,0.0,0.2,0.2,-0.2,0.2,0.0,0.0,-0.2,0.2,0.2,0.0,-0.2,0.0,-0.2,0.0,-0.2,0.0
3699,0.0,0.16666666666666666,-0.16666666666666666,0.0,-0.16666666666666666,0.16666666666666666,0.0,0.0,0.16666666666666666,0.0,0.0,0.16666666666666666,0.16666666666666666,0.0,-0.16666666666666666,0.16666666666666666,-0.16666666666666666,-0.16666666666666666,-0.16666666666666666,0.0
3700,0.0,0.16666666666666666,-0.16666666666666666,0.0,-0.16666666666666666,0.16666666666666666,0.0,0.0,0.16666666666666666,0.0,0.0,0.16666666666666666,0.16666666666666666,0.0,-0.16666666666666666,0.16666666666666666,-0.16666666666666666,-0.16666666666666666,-0.16666666666666666,0.0
3701,0.0,0.16666666666666666,-0.16666666666666666,0.0,-0.16666666666666666,0.16666666666666666,0.0,0.0,0.16666666666666666,0.0,0.0,0.16666666666666666,0.16666666666666666,0.0,-0.16666666666666666,0.16666666666666666,-0.16666666666666666,-0.16666666666666666,-0.16666666666666666,0.0
3702,0.0,0.16666666666666666,-0.16666666666666666,0.0,-0.16666666666666666,0.16666666666666666,0.0,0.0,0.16666666666666666,0.0,0.0,0.16666666666666666,0.16666666666666666,0.0,-0.16666666666666666,0.16666666666666666,-0.16666666666666666,-0.16666666666666666,-0.16666666666666666,0.0
3703,0.0,0.16666666666666666,-0.16666666666666666,0.0,-0.16666666666666666,0.16666666666666666,0.0,0.0,0.16666666666666666,0.0,-0.16666666666666666,0.16666666666666666,0.16666666666666666,0.0,-0.16666666666666666,0.16666666666666666,-0.16666666666666666,0.0,-0.16666666666666666,0.0
3704,0.0,0.16666666666666666,-0.16666666666666666,-0.16666666666666666,0.0,0.16666666666666666,0.0,0.0,0.16666666666666666,0.0,-0.16666666666666666,0.16666666666666666,0.16666666666666666,0.0,-0.16666666666666666,0.16666666666666666,-0.16666666666666666,0.0,-0.16666666666666666,0.0
3705,0.0,0.16666666666666666,-0.16666666666666666,-0.16666666666666666,0.0,0.16666666666666666,0.0,0.0,0.16666666666666666,0.0,-0.16666666666666666,0.16666666666666666,0.16666666666666666,0.0,-0.16666666666666666,0.16666666666666666,-0.16666666666666666,0.0,-0.16666666666666666,0.0
3706,0.0,0.16666666666666666,-0.16666666666666666,0.0,0.0,0.16666666666666666,0.0,0.0,0.16666666666666666,0.0,-0.16666666666666666,0.16666666666666666,0.16666666666666666,0.0,-0.16666666666666666,0.16666666666666666,-0.16666666666666666,-0.16666666666666666,-0.16666666666666666,0.0
3707,0.16666666666666666,0.16666666666666666,-0.16666666666666666,-0.16666666666666666,0.0,0.16666666666666666,0.0,0.0,0.16666666666666666,0.0,0.0,0.16666666666666666,0.16666666666666666,0.0,-0.16666666666666666,0.0,-0.16666666666666666,-0.16666666666666666,-0.16666666666666666,0.0
3708,0.16666666666666666,0.0,-0.16666666666666666,0.0,0.0,0.16666666666666666,0.16666666666666666,0.0,0.16666666666666666,0.0,0.0,0.16666666666666666,0.16666666666666666,0.0,-0.16666666666666666,-0.16666666666666666,-0.16666666666666666,-0.16666666666666666,-0.16666666666666666,0.0
3709,0.0,0.2,0.0,0.0,0.0,0.2,0.0,0.2,0.0,0.0,-0.2,0.2,0.2,-0.2,0.0,-0.2,-0.2,0.0,-0.2,0.0
3710,0.16666666666666666,0.0,0.0,-0.16666666666666666,0.0,0.16666666666666666,0.16666666666666666,0.0,0.16666666666666666,0.0,0.0,0.16666666666666666,0.16666666666666666,-0.16666666666666666,-0.16666666666666666,-0.16666666666666666,-0.16666666666666666,0.0,-0.16666666666666666,0.0
3711,0.16666666666666666,0.0,-0.16666666666666666,0.0,0.0,0.16666666666666666,0.16666666666666666,0.0,0.16666666666666666,0.0,0.0,0.16666666666666666,0.16666666666666666,-0.16666666666666666,-0.16666666666666666,-0.16666666666666666,-0.16666666666666666,0.0,-0.16666666666666666,0.0
3712,0.0,0.2,0.0,0.0,0.2,0.2,0.2,0.0,0.0,0.0,-0.2,0.2,0.0,-0.2,0.0,-0.2,-0.2,0.0,-0.2,0.0
3713,0.0,0.2,-0.2,0.0,0.2,0.2,0.2,0.0,0.0,-0.2,0.0,0.2,0.0,-0.2,0.0,0.0,-0.2,0.0,-0.2,0.0
3714,0.0,0.2,-0.2,0.0,0.2,0.2,0.2,0.0,0.0,-0.2,0.0,0.2,0.0,-0.2,0.0,-0.2,0.0,0.0,-0.2,0.0
3715,0.2,0.2,-0.2,0.0,0.2,0.2,0.2,0.0,0.0,-0.2,0.0,0.0,0.0,-0.2,0.0,-0.2,0.0,0.0,-0.2,0.0
3716,0.2,0.2,-0.2,0.0,0.2,0.2,0.2,0.0,0.0,-0.2,0.0,0.0,0.0,-0.2,0.0,-0.2,0.0,0.0,-0.2,0.0
3717,0.2,0.0,-0.2,0.0,0.2,0.2,0.2,-0.2,0.0,-0.2,0.0,0.0,0.0,-0.2,0.0,0.0,0.0,0.0,-0.2,0.2
3718,0.2,0.0,-0.2,0.0,0.2,0.2,0.2,-0.2,0.0,-0.2,0.0,0.0,0.0,0.0,0.0,-0.2,0.0,0.0,-0.2,0.2
3719,0.0,0.0,-0.2,0.0,0.2,0.2,0.2,-0.2,0.0,0.0,0.0,-0.2,0.0,0.0,0.2,-0.2,0.0,0.0,-0.2,0.2
3720,0.16666666666666666,0.0,-0.16666666666666666,0.0,0.16666666666666666,0.16666666666666666,0.0,0.0,0.16666666666666666,0.0,-0.16666666666666666,0.0,0.16666666666666666,-0.16666666666666666,0.0,-0.16666666666666666,-0.16666666666666666,0.0,-0.16666666666666666,0.16666666666666666
3721,0.0,0.0,-0.2,0.0,0.2,0.2,0.2,-0.2,0.0,0.0,0.0,-0.2,-0.2,0.0,0.0,0.0,0.2,0.0,-0.2,0.2
3722,0.16666666666666666,0.0,-0.16666666666666666,0.0,0.16666666666666666,0.16666666666666666,0.16666666666666666,0.16666666666666666,0.16666666666666666,0.0,-0.16666666666666666,0.0,0.0,-0.16666666666666666,0.0,-0.16666666666666666,-0.16666666666666666,0.0,-0.16666666666666666,0.0
3723,0.16666666666666666,0.0,-0.16666666666666666,0.0,0.16666666666666666,0.16666666666666666,0.16666666666666666,0.16666666666666666,0.16666666666666666,0.0,-0.16666666666666666,0.0,0.0,-0.16666666666666666,0.0,-0.16666666666666666,-0.16666666666666666,0.0,-0.16666666666666666,0.0
3724,0.16666666666666666,0.0,-0.16666666666666666,0.0,0.16666666666666666,0.16666666666666666,0.16666666666666666,0.16666666666666666,0.16666666666666666,0.0,-0.16666666666666666,0.0,0.0,-0.16666666666666666,0.0,-0.16666666666666666,-0.16666666666666666,0.0,-0.16666666666666666,0.0
3725,0.16666666666666666,0.0,-0.16666666666666666,0.0,0.16666666666666666,0.16666666666666666,0.16666666666666666,0.16666666666666666,0.16666666666666666,0.0,-0.16666666666666666,0.0,0.0,-0.16666666666666666,0.0,-0.16666666666666666,-0.16666666666666666,0.0,-0.16666666666666666,0.0
3726,0.16666666666666666,-0.16666666666666666,0.0,0.0,0.0,0.16666666666666666,0.16666666666666666,0.16666666666666666,0.16666666666666666,0.0,-0.16666666666666666,0.0,0.16666666666666666,-0.16666666666666666,0.0,-0.16666666666666666,-0.16666666666666666,0.0,-0.16666666666666666,0.0
3727,0.16666666666666666,-0.16666666666666666,0.0,0.0,0.0,0.16666666666666666,0.16666666666666666,0.16666666666666666,0.16666666666666666,0.0,-0.16666666666666666,0.0,0.16666666666666666,0.0,-0.16666666666666666,-0.16666666666666666,-0.16666666666666666,0.0,-0.16666666666666666,0.0
3728,0.16666666666666666,-0.16666666666666666,0.0,0.0,0.0,0.16666666666666666,0.0,0.16666666666666666,0.16666666666666666,0.0,-0.16666666666666666,0.0,0.16666666666666666,0.16666666666666666,-0.16666666666666666,-0.16666666666666666,-0.16666666666666666,0.0,-0.16666666666666666,0.0
3729,0.16666666666666666,-0.16666666666666666,0.0,0.0,0.0,0.16666666666666666,0.0,0.16666666666666666,0.16666666666666666,0.0,-0.16666666666666666,0.0,0.16666666666666666,0.16666666666666666,-0.16666666666666666,-0.16666666666666666,-0.16666666666666666,0.0,-0.16666666666666666,0.0
3730,0.16666666666666666,-0.16666666666666666,0.0,0.0,0.0,0.16666666666666666,0.0,0.16666666666666666,0.16666666666666666,0.0,-0.16666666666666666,0.16666666666666666,0.0,0.16666666666666666,-0.16666666666666666,-0.16666666666666666,-0.16666666666666666,0.0,-0.16666666666666666,0.0
3731,0.16666666666666666,-0.16666666666666666,0.0,0.0,0.0,0.16666666666666666,0.0,0.16666666666666666,0.16666666666666666,0.0,-0.16666666666666666,0.16666666666666666,0.0,0.16666666666666666,-0.16666666666666666,-0.16666666666666666,-0.16666666666666666,0.0,-0.16666666666666666,0.0
3732,0.16666666666666666,-0.16666666666666666,0.0,0.0,0.0,0.16666666666666666,0.0,0.16666666666666666,0.16666666666666666,0.0,-0.16666666666666666,0.16666666666666666,0.0,0.16666666666666666,-0.16666666666666666,0.0,-0.16666666666666666,0.0,-0.16666666666666666,-0.16666666666666666
3733,0.16666666666666666,0.0,0.0,0.0,0.0,0.16666666666666666,0.0,0.16666666666666666,0.16666666666666666,0.0,-0.16666666666666666,0.16666666666666666,0.0,0.16666666666666666,-0.16666666666666666,0.0,-0.16666666666666666,-0.16666666666666666,-0.16666666666666666,-0.16666666666666666
3734,0.16666666666666666,0.0,0.0,0.0,0.0,0.16666666666666666,0.0,0.16666666666666666,0.16666666666666666,0.0,-0.16666666666666666,0.16666666666666666,0.0,0.16666666666666666,-0.16666666666666666,0.0,-0.16666666666666666,-0.16666666666666666,-0.16666666666666666,-0.16666666666666666
3735,0.16666666666666666,0.0,0.0,0.0,0.0,0.16666666666666666,0.0,0.16666666666666666,0.0,0.0,-0.16666666666666666,0.16666666666666666,0.16666666666666666,0.16666666666666666,-0.16666666666666666,0.0,-0.16666666666666666,-0.16666666666666666,-0.16666666666666666,-0.16666666666666666
3736,0.16666666666666666,0.0,0.0,0.0,0.0,0.16666666666666666,0.0,0.16666666666666666,0.0,0.0,-0.16666666666666666,0.16666666666666666,0.16666666666666666,0.16666666666666666,-0.16666666666666666,0.0,-0.16666666666666666,-0.16666666666666666,-0.16666666666666666,-0.16666666666666666
3737,0.16666666666666666,0.16666666666666666,0.0,0.0,0.0,0.16666666666666666,0.0,0.0,0.0,0.0,-0.16666666666666666,0.16666666666666666,0.16666666666666666,0.16666666666666666,-0.16666666666666666,0.0,-0.16666666666666666,-0.16666666666666666,-0.16666666666666666,-0.16666666666666666
3738,0.16666666666666666,0.16666666666666666,0.0,0.0,0.0,0.16666666666666666,0.0,0.0,0.0,0.0,-0.16666666666666666,0.16666666666666666,0.16666666666666666,0.16666666666666666,-0.16666666666666666,0.0,-0.16666666666666666,-0.16666666666666666,-0.16666666666666666,-0.16666666666666666
3739,0.16666666666666666,0.16666666666666666,0.0,0.0,0.0,0.16666666666666666,0.0,0.0,0.0,-0.16666666666666666,-0.16666666666666666,0.16666666666666666,0.16666666666666666,0.16666666666666666,-0.16666666666666666,0.0,0.0,-0.16666666666666666,-0.16666666666666666,-0.16666666666666666
3740,0.0,0.16666666666666666,0.0,0.0,0.0,0.16666666666666666,0.0,-0.16666666666666666,0.0,0.0,-0.16666666666666666,0.16666666666666666,0.0,0.16666666666666666,-0.16666666666666666,0.16666666666666666,0.16666666666666666,-0.16666666666666666,-0.16666666666666666,-0.16666666666666666
3741,0.0,0.16666666666666666,0.0,0.16666666666666666,0.0,0.16666666666666666,0.0,-0.16666666666666666,0.0,0.0,-0.16666666666666666,0.16666666666666666,0.0,0.16666666666666666,-0.16666666666666666,0.0,0.16666666666666666,-0.16666666666666666,-0.16666666666666666,-0.16666666666666666
3742,0.0,0.16666666666666666,0.0,0.16666666666666666,0.0,0.16666666666666666,0.0,-0.16666666666666666,0.0,-0.16666666666666666,0.0,0.16666666666666666,0.0,0.16666666666666666,-0.16666666666666666,0.0,0.16666666666666666,-0.16666666666666666,-0.16666666666666666,-0.16666666666666666
3743,0.0,0.16666666666666666,0.0,0.16666666666666666,0.0,0.16666666666666666,0.0,-0.16666666666666666,0.0,-0.16666666666666666,0.0,0.16666666666666666,0.0,0.16666666666666666,-0.16666666666666666,0.0,0.16666666666666666,-0.16666666666666666,-0.16666666666666666,-0.16666666666666666
3744,0.0,0.16666666666666666,0.0,0.16666666666666666,0.0,0.16666666666666666,0.0,-0.16666666666666666,0.0,-0.16666666666666666,0.0,0.16666666666666666,0.0,0.16666666666666666,-0.16666666666666666,0.0,0.16666666666666666,-0.16666666666666666,-0.16666666666666666,-0.16666666666666666
3745,0.0,0.16666666666666666,0.0,0.16666666666666666,0.0,0.16666666666666666,0.0,-0.16666666666666666,0.0,-0.16666666666666666,-0.16666666666666666,0.16666666666666666,0.0,0.16666666666666666,0.0,0.0,0.16666666666666666,-0.16666666666666666,-0.16666666666666666,-0.16666666666666666
3746,0.0,0.16666666666666666,0.0,0.16666666666666666,0.0,0.16666666666666666,0.0,-0.16666666666666666,-0.16666666666666666,0.0,-0.16666666666666666,0.16666666666666666,0.0,0.16666666666666666,0.0,0.0,0.16666666666666666,-0.16666666666666666,-0.16666666666666666,-0.16666666666666666
3747,0.0,0.16666666666666666,0.0,0.16666666666666666,0.0,0.16666666666666666,0.0,-0.16666666666666666,-0.16666666666666666,0.0,-0.16666666666666666,0.16666666666666666,0.0,0.16666666666666666,0.0,0.0,0.16666666666666666,-0.16666666666666666,-0.16666666666666666,-0.16666666666666666
3748,0.0,0.2,0.0,0.0,0.0,0.2,-0.2,-0.2,-0.2,0.0,-0.2,0.2,0.0,0.2,0.0,0.0,0.2,0.0,0.0,-0.2
3749,0.0,0.2,0.0,0.0,0.0,0.2,-0.2,-0.2,-0.2,0.0,-0.2,0.2,0.0,0.2,0.0,0.0,0.2,0.0,0.0,-0.2
3750,0.0,0.2,0.2,0.0,0.0,0.2,0.0,-0.2,-0.2,-0.2,-0.2,0.2,-0.2,0.2,0.0,0.0,0.0,0.0,0.0,0.0
3751,0.0,0.16666666666666666,0.16666666666666666,0.0,0.0,0.16666666666666666,0.0,-0.16666666666666666,-0.16666666666666666,0.0,-0.16666666666666666,0.16666666666666666,0.0,0.16666666666666666,-0.16666666666666666,0.0,0.16666666666666666,-0.16666666666666666,-0.16666666666666666,0.0
3752,0.2,0.2,0.0,0.0,0.0,0.2,0.0,-0.2,-0.2,-0.2,-0.2,0.2,0.0,0.2,-0.2,0.0,0.0,0.0,0.0,0.0
3753,0.2,0.2,0.0,0.0,0.0,0.2,0.0,-0.2,-0.2,-0.2,-0.2,0.0,0.0,0.2,-0.2,0.0,0.0,0.0,0.0,0.2
3754,0.2,0.2,0.0,0.0,0.2,0.2,0.0,-0.2,-0.2,-0.2,-0.2,0.0,0.0,0.2,-0.2,0.0,0.0,0.0,0.0,0.0
3755,0.16666666666666666,0.16666666666666666,0.16666666666666666,0.0,0.0,0.16666666666666666,0.0,-0.16666666666666666,-0.16666666666666666,0.0,-0.16666666666666666,0.0,0.0,0.16666666666666666,-0.16666666666666666,0.0,0.16666666666666666,-0.16666666666666666,-0.16666666666666666,0.0
3756,0.16666666666666666,0.16666666666666666,0.0,0.0,0.16666666666666666,0.16666666666666666,0.0,-0.16666666666666666,-0.16666666666666666,0.0,-0.16666666666666666,0.0,0.0,0.16666666666666666,-0.16666666666666666,0.0,0.16666666666666666,-0.16666666666666666,-0.16666666666666666,0.0
3757,0.0,0.16666666666666666,0.0,0.16666666666666666,0.16666666666666666,0.16666666666666666,0.0,-0.16666666666666666,-0.16666666666666666,-0.16666666666666666,-0.16666666666666666,0.0,0.0,0.16666666666666666,-0.16666666666666666,0.0,0.16666666666666666,-0.16666666666666666,0.0,0.0
3758,0.0,0.16666666666666666,0.0,0.16666666666666666,0.16666666666666666,0.16666666666666666,0.0,-0.16666666666666666,-0.16666666666666666,-0.16666666666666666,-0.16666666666666666,0.0,-0.16666666666666666,0.16666666666666666,-0.16666666666666666,0.0,0.16666666666666666,0.0,0.0,0.0
3759,0.0,0.0,0.0,0.16666666666666666,0.16666666666666666,0.16666666666666666,0.16666666666666666,-0.16666666666666666,-0.16666666666666666,-0.16666666666666666,-0.16666666666666666,0.0,-0.16666666666666666,0.16666666666666666,-0.16666666666666666,0.0,0.16666666666666666,0.0,0.0,0.0
3760,0.0,0.16666666666666666,0.0,0.0,0.16666666666666666,0.16666666666666666,0.16666666666666666,-0.16666666666666666,-0.16666666666666666,0.0,-0.16666666666666666,0.0,-0.16666666666666666,0.16666666666666666,-0.16666666666666666,0.0,0.16666666666666666,-0.16666666666666666,0.0,0.0
3761,0.0,0.16666666666666666,0.0,0.0,0.16666666666666666,0.16666666666666666,0.16666666666666666,-0.16666666666666666,-0.16666666666666666,0.0,-0.16666666666666666,0.0,-0.16666666666666666,0.16666666666666666,-0.16666666666666666,0.0,0.16666666666666666,-0.16666666666666666,0.0,0.0
3762,0.0,0.16666666666666666,0.0,0.0,0.16666666666666666,0.16666666666666666,0.16666666666666666,-0.16666666666666666,-0.16666666666666666,0.0,-0.16666666666666666,0.0,-0.16666666666666666,0.16666666666666666,-0.16666666666666666,0.0,0.16666666666666666,-0.16666666666666666,0.0,0.0
3763,0.0,0.16666666666666666,0.0,0.0,0.16666666666666666,0.16666666666666666,0.16666666666666666,-0.16666666666666666,-0.16666666666666666,0.0,-0.16666666666666666,0.0,-0.16666666666666666,0.16666666666666666,-0.16666666666666666,0.0,0.16666666666666666,-0.16666666666666666,0.0,0.0
3764,0.0,0.16666666666666666,0.0,0.0,0.0,0.16666666666666666,0.16666666666666666,-0.16666666666666666,-0.16666666666666666,0.0,-0.16666666666666666,0.16666666666666666,-0.16666666666666666,0.16666666666666666,-0.16666666666666666,0.0,0.16666666666666666,-0.16666666666666666,0.0,0.0
3765,0.0,0.0,-0.2,-0.2,0.2,-0.2,0.2,-0.2,0.0,0.0,0.0,0.0,0.0,0.0,0.0,0.0,0.2,-0.2,0.2,0.2
3766,0.0,0.0,-0.2,-0.2,0.2,-0.2,0.2,0.0,0.0,0.0,0.0,0.0,0.0,0.0,0.0,-0.2,0.2,-0.2,0.2,0.2
3767,0.0,0.0,-0.2,-0.2,0.2,-0.2,0.2,0.0,0.0,0.0,0.0,0.0,0.0,0.0,0.0,-0.2,0.2,-0.2,0.2,0.2
3768,0.0,0.0,-0.2,-0.2,0.2,-0.2,0.2,0.0,-0.2,0.0,0.0,0.0,0.0,0.0,0.0,-0.2,0.2,0.0,0.2,0.2
3769,0.0,0.2,-0.2,-0.2,0.2,-0.2,0.2,0.0,-0.2,0.0,0.0,0.2,0.0,0.0,0.0,-0.2,0.2,0.0,0.0,0.0
3770,0.0,0.2,-0.2,-0.2,0.2,0.0,0.0,0.0,-0.2,0.0,0.2,0.2,-0.2,0.0,0.0,-0.2,0.2,0.0,0.0,0.0
3771,0.0,0.2,-0.2,-0.2,0.2,0.0,0.0,0.0,-0.2,0.0,0.2,0.2,-0.2,0.0,0.0,-0.2,0.2,0.0,0.0,0.0
3772,0.0,0.2,-0.2,0.0,0.2,0.0,-0.2,-0.2,0.0,0.0,0.2,0.2,-0.2,0.0,0.0,-0.2,0.2,0.0,0.0,0.0
3773,0.0,0.2,-0.2,0.0,0.2,-0.2,-0.2,0.0,0.0,-0.2,0.2,0.2,0.0,0.0,0.0,-0.2,0.2,0.0,0.0,0.0
3774,0.0,0.2,-0.2,0.0,0.0,-0.2,-0.2,0.0,0.0,-0.2,0.2,0.0,0.0,0.0,0.0,-0.2,0.2,0.2,0.0,0.2
3775,0.0,0.16666666666666666,-0.16666666666666666,0.0,0.16666666666666666,0.16666666666666666,-0.16666666666666666,-0.16666666666666666,-0.16666666666666666,0.0,-0.16666666666666666,0.16666666666666666,0.0,0.16666666666666666,0.0,0.0,0.16666666666666666,-0.16666666666666666,0.0,0.0
3776,0.0,0.16666666666666666,-0.16666666666666666,0.0,0.16666666666666666,0.16666666666666666,-0.16666666666666666,-0.16666666666666666,-0.16666666666666666,0.0,0.0,0.16666666666666666,0.0,0.16666666666666666,0.0,-0.16666666666666666,0.16666666666666666,-0.16666666666666666,0.0,0.0
3777,0.0,0.16666666666666666,-0.16666666666666666,0.0,0.16666666666666666,0.16666666666666666,-0.16666666666666666,-0.16666666666666666,-0.16666666666666666,0.0,0.0,0.16666666666666666,0.0,0.16666666666666666,0.0,-0.16666666666666666,0.16666666666666666,-0.16666666666666666,0.0,0.0
3778,0.0,0.16666666666666666,-0.16666666666666666,0.0,0.16666666666666666,0.16666666666666666,-0.16666666666666666,-0.16666666666666666,-0.16666666666666666,0.0,0.0,0.16666666666666666,0.0,0.16666666666666666,0.0,-0.16666666666666666,0.16666666666666666,-0.16666666666666666,0.0,0.0
3779,0.0,0.16666666666666666,-0.16666666666666666,0.0,0.16666666666666666,0.16666666666666666,-0.16666666666666666,-0.16666666666666666,-0.16666666666666666,0.0,0.0,0.16666666666666666,0.0,0.16666666666666666,0.0,-0.16666666666666666,0.16666666666666666,-0.16666666666666666,0.0,0.0
3780,0.0,0.16666666666666666,-0.16666666666666666,0.0,0.16666666666666666,0.16666666666666666,0.0,-0.16666666666666666,-0.16666666666666666,-0.16666666666666666,0.16666666666666666,0.0,-0.16666666666666666,0.16666666666666666,0.0,-0.16666666666666666,0.16666666666666666,0.0,0.0,0.0
3781,0.0,0.16666666666666666,-0.16666666666666666,0.0,0.16666666666666666,0.16666666666666666,0.0,-0.16666666666666666,-0.16666666666666666,-0.16666666666666666,0.16666666666666666,0.0,-0.16666666666666666,0.0,0.0,-0.16666666666666666,0.16666666666666666,0.16666666666666666,0.0,0.0
3782,0.0,0.16666666666666666,-0.16666666666666666,0.0,0.16666666666666666,0.16666666666666666,0.0,-0.16666666666666666,-0.16666666666666666,-0.16666666666666666,0.0,0.0,-0.16666666666666666,0.0,0.16666666666666666,-0.16666666666666666,0.16666666666666666,0.16666666666666666,0.0,0.0
3783,0.0,0.16666666666666666,-0.16666666666666666,0.0,0.16666666666666666,0.0,0.0,-0.16666666666666666,-0.16666666666666666,0.0,0.0,0.16666666666666666,-0.16666666666666666,0.0,0.16666666666666666,-0.16666666666666666,0.16666666666666666,0.16666666666666666,-0.16666666666666666,0.0
3784,0.0,0.16666666666666666,-0.16666666666666666,0.0,0.16666666666666666,0.0,0.0,-0.16666666666666666,-0.16666666666666666,0.0,0.0,0.16666666666666666,-0.16666666666666666,0.0,0.16666666666666666,-0.16666666666666666,0.16666666666666666,0.16666666666666666,-0.16666666666666666,0.0
3785,0.0,0.16666666666666666,-0.16666666666666666,0.0,0.16666666666666666,0.0,0.0,-0.16666666666666666,-0.16666666666666666,0.0,0.0,0.16666666666666666,-0.16666666666666666,0.0,0.16666666666666666,-0.16666666666666666,0.16666666666666666,0.16666666666666666,-0.16666666666666666,0.0
3786,0.0,0.16666666666666666,-0.16666666666666666,0.0,0.16666666666666666,0.0,0.0,-0.16666666666666666,-0.16666666666666666,-0.16666666666666666,0.0,0.16666666666666666,-0.16666666666666666,0.0,0.16666666666666666,0.0,0.16666666666666666,0.16666666666666666,-0.16666666666666666,0.0
3787,0.0,0.16666666666666666,-0.16666666666666666,0.0,0.16666666666666666,0.0,0.0,-0.16666666666666666,-0.16666666666666666,-0.16666666666666666,0.0,0.16666666666666666,-0.16666666666666666,0.0,0.16666666666666666,0.0,0.16666666666666666,0.16666666666666666,-0.16666666666666666,0.0
3788,0.0,0.16666666666666666,-0.16666666666666666,0.0,0.16666666666666666,0.0,0.0,-0.16666666666666666,-0.16666666666666666,-0.16666666666666666,0.0,0.16666666666666666,-0.16666666666666666,0.0,0.16666666666666666,0.0,0.16666666666666666,0.16666666666666666,-0.16666666666666666,0.0
3789,0.0,0.16666666666666666,-0.16666666666666666,0.16666666666666666,0.16666666666666666,0.0,0.0,-0.16666666666666666,-0.16666666666666666,-0.16666666666666666,0.0,0.16666666666666666,-0.16666666666666666,0.0,0.0,0.0,0.16666666666666666,0.16666666666666666,-0.16666666666666666,0.0
3790,0.0,0.16666666666666666,-0.16666666666666666,0.16666666666666666,0.16666666666666666,-0.16666666666666666,0.0,-0.16666666666666666,-0.16666666666666666,-0.16666666666666666,0.0,0.16666666666666666,0.0,0.0,0.0,0.0,0.16666666666666666,0.16666666666666666,-0.16666666666666666,0.0
3791,0.0,0.16666666666666666,-0.16666666666666666,0.16666666666666666,0.16666666666666666,-0.16666666666666666,0.0,-0.16666666666666666,-0.16666666666666666,-0.16666666666666666,0.0,0.16666666666666666,0.0,0.0,0.0,0.0,0.16666666666666666,0.16666666666666666,-0.16666666666666666,0.0
3792,0.0,0.16666666666666666,-0.16666666666666666,0.0,0.16666666666666666,-0.16666666666666666,0.0,-0.16666666666666666,-0.16666666666666666,-0.16666666666666666,0.0,0.16666666666666666,0.0,0.0,0.0,0.0,0.16666666666666666,0.16666666666666666,-0.16666666666666666,0.16666666666666666
3793,0.0,0.16666666666666666,-0.16666666666666666,0.0,0.16666666666666666,-0.16666666666666666,0.16666666666666666,-0.16666666666666666,-0.16666666666666666,-0.16666666666666666,0.0,0.16666666666666666,0.0,0.0,0.0,0.0,0.16666666666666666,0.16666666666666666,-0.16666666666666666,0.0
3794,0.0,0.16666666666666666,-0.16666666666666666,0.0,0.0,-0.16666666666666666,0.0,-0.16666666666666666,-0.16666666666666666,-0.16666666666666666,0.16666666666666666,0.16666666666666666,0.0,0.0,0.0,0.0,0.16666666666666666,0.16666666666666666,-0.16666666666666666,0.16666666666666666
3795,0.0,0.0,-0.16666666666666666,0.0,0.16666666666666666,-0.16666666666666666,0.16666666666666666,-0.16666666666666666,-0.16666666666666666,-0.16666666666666666,0.16666666666666666,0.16666666666666666,0.0,0.0,0.0,0.0,0.16666666666666666,0.16666666666666666,-0.16666666666666666,0.0
3796,0.0,0.0,-0.16666666666666666,0.0,0.16666666666666666,-0.16666666666666666,0.16666666666666666,-0.16666666666666666,0.0,-0.16666666666666666,0.16666666666666666,0.16666666666666666,0.0,-0.16666666666666666,0.0,0.0,0.16666666666666666,0.16666666666666666,-0.16666666666666666,0.0
3797,0.0,0.0,-0.16666666666666666,0.0,0.16666666666666666,-0.16666666666666666,0.16666666666666666,-0.16666666666666666,0.0,-0.16666666666666666,0.16666666666666666,0.16666666666666666,0.0,-0.16666666666666666,0.0,0.0,0.16666666666666666,0.0,-0.16666666666666666,0.16666666666666666
3798,0.0,0.0,-0.16666666666666666,0.0,0.16666666666666666,-0.16666666666666666,0.16666666666666666,-0.16666666666666666,0.0,-0.16666666666666666,0.16666666666666666,0.16666666666666666,0.0,-0.16666666666666666,0.0,0.0,0.16666666666666666,0.0,-0.16666666666666666,0.16666666666666666
3799,0.0,0.0,-0.16666666666666666,0.0,0.16666666666666666,-0.16666666666666666,0.16666666666666666,-0.16666666666666666,0.0,-0.16666666666666666,0.16666666666666666,0.16666666666666666,0.0,-0.16666666666666666,0.0,0.0,0.16666666666666666,0.0,-0.16666666666666666,0.16666666666666666
3800,0.0,0.0,-0.16666666666666666,0.0,0.16666666666666666,-0.16666666666666666,0.16666666666666666,-0.16666666666666666,0.0,-0.16666666666666666,0.16666666666666666,0.16666666666666666,0.0,-0.16666666666666666,0.0,0.0,0.16666666666666666,0.16666666666666666,-0.16666666666666666,0.0
3801,-0.16666666666666666,0.0,-0.16666666666666666,0.0,0.16666666666666666,-0.16666666666666666,0.16666666666666666,0.0,0.0,-0.16666666666666666,0.16666666666666666,0.16666666666666666,0.0,-0.16666666666666666,0.16666666666666666,0.0,0.16666666666666666,0.0,-0.16666666666666666,0.0
3802,-0.16666666666666666,0.0,-0.16666666666666666,0.0,0.16666666666666666,-0.16666666666666666,0.0,0.0,0.0,-0.16666666666666666,0.16666666666666666,0.16666666666666666,0.0,-0.16666666666666666,0.16666666666666666,0.0,0.16666666666666666,0.16666666666666666,-0.16666666666666666,0.0
3803,-0.16666666666666666,0.16666666666666666,-0.16666666666666666,0.0,0.16666666666666666,-0.16666666666666666,0.0,-0.16666666666666666,0.0,0.0,0.16666666666666666,0.16666666666666666,0.0,-0.16666666666666666,0.16666666666666666,0.0,0.16666666666666666,0.0,-0.16666666666666666,0.0
3804,-0.16666666666666666,0.16666666666666666,-0.16666666666666666,0.0,0.16666666666666666,-0.16666666666666666,0.0,-0.16666666666666666,0.0,0.0,0.16666666666666666,0.16666666666666666,0.0,-0.16666666666666666,0.16666666666666666,0.0,0.16666666666666666,0.0,-0.16666666666666666,0.0
3805,-0.16666666666666666,0.16666666666666666,-0.16666666666666666,0.0,0.0,-0.16666666666666666,0.0,-0.16666666666666666,0.0,0.0,0.16666666666666666,0.16666666666666666,0.0,-0.16666666666666666,0.16666666666666666,0.0,0.16666666666666666,0.16666666666666666,-0.16666666666666666,0.0
3806,-0.16666666666666666,0.16666666666666666,-0.16666666666666666,0.0,0.0,-0.16666666666666666,0.0,-0.16666666666666666,0.0,0.0,0.16666666666666666,0.16666666666666666,0.0,-0.16666666666666666,0.16666666666666666,0.0,0.16666666666666666,0.16666666666666666,-0.16666666666666666,0.0
3807,-0.16666666666666666,0.16666666666666666,-0.16666666666666666,0.0,0.0,-0.16666666666666666,0.0,-0.16666666666666666,0.0,0.0,0.16666666666666666,0.16666666666666666,0.0,-0.16666666666666666,0.16666666666666666,0.0,0.16666666666666666,0.16666666666666666,-0.16666666666666666,0.0
3808,-0.16666666666666666,0.16666666666666666,-0.16666666666666666,0.0,0.0,-0.16666666666666666,0.0,-0.16666666666666666,0.0,0.0,0.16666666666666666,0.16666666666666666,0.0,-0.16666666666666666,0.16666666666666666,0.0,0.16666666666666666,0.16666666666666666,-0.16666666666666666,0.0
3809,0.0,0.16666666666666666,-0.16666666666666666,0.0,0.0,-0.16666666666666666,0.0,-0.16666666666666666,0.0,0.0,0.16666666666666666,0.16666666666666666,0.0,-0.16666666666666666,0.16666666666666666,-0.16666666666666666,0.16666666666666666,0.16666666666666666,-0.16666666666666666,0.0
3810,0.0,0.2,-0.2,-0.2,0.0,-0.2,0.2,-0.2,0.0,0.0,0.2,0.2,0.0,-0.2,0.0,0.0,0.2,0.0,0.0,0.0
3811,0.0,0.2,-0.2,-0.2,0.0,-0.2,0.2,-0.2,0.0,0.0,0.2,0.2,0.0,-0.2,0.0,0.0,0.2,0.0,0.0,0.0
3812,0.0,0.2,0.0,-0.2,0.0,-0.2,0.2,-0.2,0.0,0.0,0.2,0.2,0.0,-0.2,0.0,-0.2,0.2,0.0,0.0,0.0
3813,0.0,0.2,-0.2,-0.2,0.0,0.0,0.2,-0.2,0.0,0.0,0.0,0.2,0.0,-0.2,0.0,-0.2,0.2,0.0,0.0,0.2
3814,0.0,0.2,-0.2,-0.2,0.0,0.0,0.0,-0.2,0.0,0.0,0.2,0.2,0.0,-0.2,0.0,-0.2,0.2,0.0,0.0,0.2
3815,0.0,0.2,-0.2,-0.2,0.2,0.0,0.0,0.0,0.0,0.0,0.0,0.2,-0.2,-0.2,0.0,-0.2,0.2,0.0,0.0,0.2
3816,0.0,0.16666666666666666,-0.16666666666666666,0.0,0.0,-0.16666666666666666,0.0,-0.16666666666666666,0.0,0.0,0.16666666666666666,0.16666666666666666,-0.16666666666666666,-0.16666666666666666,0.0,0.0,0.16666666666666666,0.16666666666666666,-0.16666666666666666,0.16666666666666666
3817,-0.16666666666666666,0.16666666666666666,-0.16666666666666666,0.0,0.0,-0.16666666666666666,0.0,0.0,0.0,0.0,0.16666666666666666,0.16666666666666666,-0.16666666666666666,-0.16666666666666666,0.0,0.0,0.16666666666666666,0.16666666666666666,-0.16666666666666666,0.16666666666666666
3818,-0.16666666666666666,0.16666666666666666,-0.16666666666666666,0.0,0.0,-0.16666666666666666,0.0,0.0,0.0,0.0,0.16666666666666666,0.16666666666666666,-0.16666666666666666,-0.16666666666666666,0.0,0.0,0.16666666666666666,0.16666666666666666,-0.16666666666666666,0.16666666666666666
3819,-0.16666666666666666,0.16666666666666666,-0.16666666666666666,0.0,0.0,-0.16666666666666666,0.0,0.0,0.0,0.0,0.16666666666666666,0.16666666666666666,-0.16666666666666666,-0.16666666666666666,0.0,0.0,0.16666666666666666,0.16666666666666666,-0.16666666666666666,0.16666666666666666
3820,-0.16666666666666666,0.16666666666666666,-0.16666666666666666,0.0,0.0,-0.16666666666666666,0.0,0.0,0.0,-0.16666666666666666,0.16666666666666666,0.16666666666666666,0.0,-0.16666666666666666,0.0,0.0,0.16666666666666666,0.16666666666666666,-0.16666666666666666,0.16666666666666666
3821,-0.16666666666666666,0.16666666666666666,-0.16666666666666666,0.0,0.16666666666666666,-0.16666666666666666,0.0,0.0,0.0,-0.16666666666666666,0.0,0.16666666666666666,0.0,-0.16666666666666666,0.0,0.0,0.16666666666666666,0.16666666666666666,-0.16666666666666666,0.16666666666666666
3822,-0.16666666666666666,0.16666666666666666,-0.16666666666666666,0.0,0.16666666666666666,-0.16666666666666666,0.0,0.0,0.0,-0.16666666666666666,0.0,0.16666666666666666,0.0,-0.16666666666666666,0.0,0.0,0.16666666666666666,0.16666666666666666,-0.16666666666666666,0.16666666666666666
3823,-0.16666666666666666,0.16666666666666666,-0.16666666666666666,0.0,0.16666666666666666,-0.16666666666666666,0.0,0.0,0.0,-0.16666666666666666,0.0,0.16666666666666666,0.0,-0.16666666666666666,0.0,0.0,0.16666666666666666,0.16666666666666666,-0.16666666666666666,0.16666666666666666
3824,-0.16666666666666666,0.16666666666666666,-0.16666666666666666,0.0,0.16666666666666666,-0.16666666666666666,0.0,0.0,0.0,-0.16666666666666666,0.0,0.16666666666666666,0.0,-0.16666666666666666,0.0,0.0,0.16666666666666666,0.16666666666666666,-0.16666666666666666,0.16666666666666666
3825,-0.16666666666666666,0.16666666666666666,-0.16666666666666666,0.0,0.16666666666666666,-0.16666666666666666,0.16666666666666666,0.0,0.0,0.0,0.0,0.16666666666666666,-0.16666666666666666,-0.16666666666666666,0.0,0.0,0.16666666666666666,0.16666666666666666,-0.16666666666666666,0.0
3826,-0.2,0.0,-0.2,0.2,0.2,0.0,0.0,0.2,0.0,-0.2,-0.2,0.0,0.0,0.0,-0.2,0.0,0.0,0.2,0.2,0.0
3827,-0.2,0.0,-0.2,0.2,0.2,0.0,0.0,0.2,0.0,-0.2,0.0,0.0,-0.2,0.0,-0.2,0.0,0.0,0.2,0.2,0.0
3828,-0.16666666666666666,0.16666666666666666,-0.16666666666666666,0.16666666666666666,0.16666666666666666,-0.16666666666666666,0.16666666666666666,0.0,0.0,0.0,0.0,0.16666666666666666,-0.16666666666666666,-0.16666666666666666,0.0,0.0,0.0,0.16666666666666666,-0.16666666666666666,0.0
3829,-0.2,0.0,-0.2,0.2,0.2,0.0,0.0,0.2,0.0,-0.2,0.0,0.0,-0.2,0.0,0.0,0.0,-0.2,0.2,0.0,0.2
3830,-0.2,0.0,-0.2,0.2,0.2,0.0,0.0,0.2,0.0,-0.2,0.0,0.0,-0.2,0.0,0.0,0.0,-0.2,0.2,0.0,0.2
3831,-0.2,0.0,-0.2,0.2,0.2,0.0,0.0,0.2,0.0,-0.2,-0.2,0.0,0.0,0.0,0.0,0.0,-0.2,0.2,0.0,0.2
3832,-0.2,0.0,-0.2,0.2,0.0,0.0,0.0,0.2,0.0,-0.2,-0.2,0.0,0.0,0.0,0.0,0.2,-0.2,0.2,0.0,0.2
3833,-0.2,0.0,-0.2,0.2,0.0,0.0,0.0,0.2,0.0,-0.2,-0.2,0.0,0.0,0.0,0.2,0.0,-0.2,0.2,0.0,0.2
3834,-0.16666666666666666,0.16666666666666666,-0.16666666666666666,0.16666666666666666,0.16666666666666666,0.0,0.16666666666666666,0.0,0.0,-0.16666666666666666,0.0,0.16666666666666666,0.0,-0.16666666666666666,0.0,0.0,-0.16666666666666666,0.0,-0.16666666666666666,0.16666666666666666
3835,-0.16666666666666666,0.16666666666666666,-0.16666666666666666,0.16666666666666666,0.16666666666666666,-0.16666666666666666,0.16666666666666666,0.0,0.0,-0.16666666666666666,0.0,0.16666666666666666,0.0,-0.16666666666666666,0.0,0.0,-0.16666666666666666,0.0,0.0,0.16666666666666666
3836,-0.16666666666666666,0.16666666666666666,-0.16666666666666666,0.16666666666666666,0.16666666666666666,-0.16666666666666666,0.16666666666666666,0.0,0.0,-0.16666666666666666,0.0,0.16666666666666666,0.0,-0.16666666666666666,0.0,0.0,-0.16666666666666666,0.0,0.0,0.16666666666666666
3837,-0.16666666666666666,0.16666666666666666,-0.16666666666666666,0.16666666666666666,0.16666666666666666,-0.16666666666666666,0.16666666666666666,0.0,0.0,-0.16666666666666666,0.0,0.16666666666666666,0.0,-0.16666666666666666,0.0,0.0,-0.16666666666666666,0.0,0.0,0.16666666666666666
3838,-0.16666666666666666,0.16666666666666666,-0.16666666666666666,0.16666666666666666,0.16666666666666666,-0.16666666666666666,0.16666666666666666,0.0,0.0,-0.16666666666666666,0.0,0.0,0.0,-0.16666666666666666,0.0,0.0,-0.16666666666666666,0.16666666666666666,0.0,0.16666666666666666
3839,-0.16666666666666666,0.16666666666666666,-0.16666666666666666,0.16666666666666666,0.16666666666666666,-0.16666666666666666,0.16666666666666666,0.0,0.0,-0.16666666666666666,0.0,0.0,0.0,-0.16666666666666666,0.0,0.0,-0.16666666666666666,0.16666666666666666,0.0,0.16666666666666666
3840,-0.16666666666666666,0.0,-0.16666666666666666,0.0,0.16666666666666666,-0.16666666666666666,0.16666666666666666,0.16666666666666666,0.0,-0.16666666666666666,0.0,0.0,0.0,-0.16666666666666666,0.16666666666666666,0.0,-0.16666666666666666,0.16666666666666666,0.0,0.16666666666666666
3841,-0.16666666666666666,0.0,-0.16666666666666666,0.0,0.16666666666666666,0.0,0.16666666666666666,0.16666666666666666,0.0,-0.16666666666666666,0.0,0.0,0.0,-0.16666666666666666,0.16666666666666666,-0.16666666666666666,-0.16666666666666666,0.0,0.16666666666666666,0.16666666666666666
3842,-0.16666666666666666,0.0,-0.16666666666666666,0.0,0.16666666666666666,0.0,0.16666666666666666,0.16666666666666666,0.0,-0.16666666666666666,0.0,0.0,0.0,-0.16666666666666666,0.16666666666666666,-0.16666666666666666,-0.16666666666666666,0.0,0.16666666666666666,0.16666666666666666
3843,-0.16666666666666666,0.0,-0.16666666666666666,0.0,0.16666666666666666,0.0,0.16666666666666666,0.16666666666666666,0.0,-0.16666666666666666,0.0,0.0,0.0,-0.16666666666666666,0.16666666666666666,-0.16666666666666666,-0.16666666666666666,0.0,0.16666666666666666,0.16666666666666666
3844,-0.16666666666666666,0.16666666666666666,-0.16666666666666666,0.0,0.0,0.0,0.16666666666666666,0.16666666666666666,0.0,-0.16666666666666666,0.0,0.0,0.0,-0.16666666666666666,0.16666666666666666,-0.16666666666666666,-0.16666666666666666,0.0,0.16666666666666666,0.16666666666666666
3845,-0.16666666666666666,0.16666666666666666,-0.16666666666666666,0.0,0.0,0.0,0.16666666666666666,0.16666666666666666,0.0,0.0,0.0,0.0,0.0,-0.16666666666666666,0.16666666666666666,-0.16666666666666666,-0.16666666666666666,-0.16666666666666666,0.16666666666666666,0.16666666666666666
3846,-0.16666666666666666,0.16666666666666666,-0.16666666666666666,0.0,0.0,0.0,0.16666666666666666,0.16666666666666666,0.0,0.0,0.0,0.0,0.0,-0.16666666666666666,0.16666666666666666,-0.16666666666666666,-0.16666666666666666,-0.16666666666666666,0.16666666666666666,0.16666666666666666
3847,-0.16666666666666666,0.16666666666666666,-0.16666666666666666,0.0,0.0,0.0,0.16666666666666666,0.16666666666666666,0.0,0.0,0.0,0.0,0.0,-0.16666666666666666,0.16666666666666666,-0.16666666666666666,-0.16666666666666666,-0.16666666666666666,0.16666666666666666,0.16666666666666666
3848,-0.16666666666666666,0.16666666666666666,-0.16666666666666666,0.0,-0.16666666666666666,0.0,0.16666666666666666,0.16666666666666666,0.0,0.0,0.0,0.0,0.0,-0.16666666666666666,0.16666666666666666,-0.16666666666666666,0.0,-0.16666666666666666,0.16666666666666666,0.16666666666666666
3849,-0.16666666666666666,0.16666666666666666,-0.16666666666666666,0.0,-0.16666666666666666,0.0,0.16666666666666666,0.0,0.0,0.0,0.0,0.16666666666666666,0.0,-0.16666666666666666,0.16666666666666666,-0.16666666666666666,0.0,-0.16666666666666666,0.16666666666666666,0.16666666666666666
3850,-0.16666666666666666,0.16666666666666666,-0.16666666666666666,0.0,-0.16666666666666666,0.0,0.16666666666666666,0.0,0.0,0.0,0.0,0.16666666666666666,0.0,-0.16666666666666666,0.16666666666666666,-0.16666666666666666,0.0,-0.16666666666666666,0.16666666666666666,0.16666666666666666
3851,-0.16666666666666666,0.16666666666666666,-0.16666666666666666,0.0,-0.16666666666666666,0.0,0.16666666666666666,0.16666666666666666,0.0,0.0,0.0,0.0,0.0,-0.16666666666666666,0.16666666666666666,-0.16666666666666666,0.0,-0.16666666666666666,0.16666666666666666,0.16666666666666666
3852,0.0,0.0,-0.16666666666666666,-0.16666666666666666,-0.16666666666666666,0.16666666666666666,0.16666666666666666,0.16666666666666666,0.0,0.0,0.0,0.0,0.0,-0.16666666666666666,0.16666666666666666,-0.16666666666666666,0.0,-0.16666666666666666,0.16666666666666666,0.16666666666666666
3853,-0.16666666666666666,0.0,-0.16666666666666666,0.0,-0.16666666666666666,0.16666666666666666,0.16666666666666666,0.16666666666666666,0.0,0.0,0.0,0.0,0.0,-0.16666666666666666,0.16666666666666666,-0.16666666666666666,0.0,-0.16666666666666666,0.16666666666666666,0.16666666666666666
3854,-0.16666666666666666,0.0,-0.16666666666666666,0.0,-0.16666666666666666,0.16666666666666666,0.16666666666666666,0.16666666666666666,0.0,-0.16666666666666666,0.0,0.0,0.0,-0.16666666666666666,0.16666666666666666,0.0,0.0,-0.16666666666666666,0.16666666666666666,0.16666666666666666
3855,-0.16666666666666666,0.0,-0.16666666666666666,0.0,-0.16666666666666666,0.16666666666666666,0.16666666666666666,0.16666666666666666,0.0,-0.16666666666666666,0.0,0.0,0.0,-0.16666666666666666,0.16666666666666666,0.0,0.0,-0.16666666666666666,0.16666666666666666,0.16666666666666666
3856,0.0,0.2,-0.2,-0.2,-0.2,0.2,0.0,0.0,-0.2,0.0,0.0,0.2,0.0,0.0,0.2,0.0,0.0,-0.2,0.2,0.0
3857,0.0,0.2,-0.2,-0.2,-0.2,0.2,0.0,0.0,-0.2,0.0,0.2,0.2,0.0,0.0,0.2,0.0,0.0,-0.2,0.0,0.0
3858,0.0,0.2,-0.2,-0.2,-0.2,0.2,0.0,0.0,-0.2,0.0,0.2,0.2,0.0,0.0,0.2,0.0,0.0,-0.2,0.0,0.0
3859,-0.16666666666666666,0.0,-0.16666666666666666,0.0,-0.16666666666666666,0.16666666666666666,0.16666666666666666,0.16666666666666666,0.0,-0.16666666666666666,0.0,0.0,0.0,-0.16666666666666666,0.16666666666666666,0.0,0.0,-0.16666666666666666,0.16666666666666666,0.16666666666666666
3860,-0.16666666666666666,0.0,-0.16666666666666666,0.0,-0.16666666666666666,0.16666666666666666,0.16666666666666666,0.16666666666666666,0.0,-0.16666666666666666,0.0,0.0,0.0,-0.16666666666666666,0.16666666666666666,0.0,0.0,-0.16666666666666666,0.16666666666666666,0.16666666666666666
3861,0.0,0.2,-0.2,-0.2,-0.2,0.2,0.0,0.0,-0.2,0.0,0.2,0.2,0.0,0.0,0.2,0.0,0.0,-0.2,0.0,0.0
3862,-0.2,0.2,-0.2,-0.2,-0.2,0.2,0.0,0.0,0.0,0.0,0.2,0.2,0.0,0.0,0.2,0.0,0.0,-0.2,0.0,0.0
3863,-0.2,0.2,-0.2,-0.2,-0.2,0.0,0.0,0.0,0.0,0.0,0.2,0.2,0.0,0.0,0.2,0.0,0.0,-0.2,0.2,0.0
3864,-0.16666666666666666,0.0,-0.16666666666666666,0.0,-0.16666666666666666,0.16666666666666666,0.16666666666666666,0.16666666666666666,0.0,-0.16666666666666666,0.0,0.0,0.0,0.0,0.16666666666666666,0.0,-0.16666666666666666,-0.16666666666666666,0.16666666666666666,0.16666666666666666
3865,-0.16666666666666666,0.0,-0.16666666666666666,0.0,-0.16666666666666666,0.16666666666666666,0.16666666666666666,0.16666666666666666,0.0,-0.16666666666666666,0.16666666666666666,0.0,0.0,0.0,0.16666666666666666,0.0,-0.16666666666666666,-0.16666666666666666,0.16666666666666666,0.0
3866,-0.16666666666666666,0.0,-0.16666666666666666,0.0,-0.16666666666666666,0.16666666666666666,0.16666666666666666,0.0,0.0,-0.16666666666666666,0.16666666666666666,0.16666666666666666,0.0,0.0,0.16666666666666666,-0.16666666666666666,0.0,-0.16666666666666666,0.16666666666666666,0.0
3867,-0.2,0.2,-0.2,0.0,0.0,0.0,0.2,-0.2,0.0,0.0,0.2,0.2,0.0,0.0,0.0,-0.2,0.0,0.0,0.2,-0.2
3868,-0.16666666666666666,0.0,-0.16666666666666666,0.0,-0.16666666666666666,0.16666666666666666,0.16666666666666666,0.0,0.0,-0.16666666666666666,0.16666666666666666,0.0,0.16666666666666666,0.0,0.16666666666666666,-0.16666666666666666,0.0,-0.16666666666666666,0.16666666666666666,0.0
3869,-0.16666666666666666,0.0,-0.16666666666666666,0.0,0.0,0.16666666666666666,0.16666666666666666,-0.16666666666666666,0.0,-0.16666666666666666,0.16666666666666666,0.0,0.16666666666666666,0.0,0.16666666666666666,-0.16666666666666666,0.0,-0.16666666666666666,0.16666666666666666,0.0
3870,-0.16666666666666666,0.0,-0.16666666666666666,-0.16666666666666666,0.0,0.16666666666666666,0.16666666666666666,0.0,0.0,-0.16666666666666666,0.16666666666666666,0.0,0.16666666666666666,0.0,0.16666666666666666,-0.16666666666666666,0.0,-0.16666666666666666,0.16666666666666666,0.0
3871,-0.16666666666666666,0.0,-0.16666666666666666,-0.16666666666666666,0.0,0.16666666666666666,0.16666666666666666,0.0,0.0,-0.16666666666666666,0.16666666666666666,0.0,0.16666666666666666,0.0,0.16666666666666666,-0.16666666666666666,0.0,-0.16666666666666666,0.16666666666666666,0.0
3872,-0.16666666666666666,0.0,-0.16666666666666666,-0.16666666666666666,0.0,0.16666666666666666,0.16666666666666666,0.0,0.0,-0.16666666666666666,0.16666666666666666,0.0,0.16666666666666666,0.0,0.16666666666666666,-0.16666666666666666,0.0,-0.16666666666666666,0.16666666666666666,0.0
3873,-0.16666666666666666,0.0,-0.16666666666666666,-0.16666666666666666,0.0,0.16666666666666666,0.16666666666666666,0.0,0.0,-0.16666666666666666,0.16666666666666666,0.0,0.16666666666666666,0.0,0.16666666666666666,-0.16666666666666666,0.0,-0.16666666666666666,0.16666666666666666,0.0
3874,-0.16666666666666666,0.0,-0.16666666666666666,-0.16666666666666666,0.0,0.16666666666666666,0.16666666666666666,0.0,0.0,-0.16666666666666666,0.16666666666666666,0.16666666666666666,0.0,0.0,0.16666666666666666,-0.16666666666666666,0.0,-0.16666666666666666,0.16666666666666666,0.0
3875,-0.2,0.0,0.0,0.0,0.2,0.2,0.2,-0.2,-0.2,0.0,0.2,0.0,-0.2,0.0,0.0,-0.2,0.0,0.2,0.0,0.0
3876,-0.2,0.0,0.0,0.0,0.2,0.2,0.0,0.0,-0.2,0.0,0.0,0.0,-0.2,0.2,0.2,-0.2,-0.2,0.2,0.0,0.0
3877,-0.16666666666666666,0.0,-0.16666666666666666,-0.16666666666666666,0.0,0.16666666666666666,0.16666666666666666,0.0,0.0,0.0,0.16666666666666666,0.16666666666666666,0.0,0.0,0.16666666666666666,-0.16666666666666666,-0.16666666666666666,-0.16666666666666666,0.16666666666666666,0.0
3878,-0.16666666666666666,0.16666666666666666,-0.16666666666666666,-0.16666666666666666,0.0,0.16666666666666666,0.16666666666666666,0.0,0.0,0.0,0.0,0.16666666666666666,0.0,0.0,0.16666666666666666,-0.16666666666666666,-0.16666666666666666,-0.16666666666666666,0.16666666666666666,0.0
3879,-0.2,0.2,0.0,0.0,0.2,0.2,0.0,0.2,0.0,0.0,-0.2,0.0,-0.2,0.0,0.0,-0.2,-0.2,0.2,0.0,0.0
3880,-0.2,0.0,0.0,0.0,0.2,0.2,0.0,0.2,0.0,0.2,-0.2,0.0,-0.2,0.0,0.0,-0.2,-0.2,0.2,0.0,0.0
3881,0.0,0.0,0.0,0.0,0.2,0.2,0.0,0.2,0.2,0.2,-0.2,0.0,-0.2,0.0,0.0,-0.2,-0.2,0.0,-0.2,0.0
3882,0.0,0.0,0.0,0.0,0.2,0.2,0.0,0.2,0.2,0.2,-0.2,0.0,-0.2,0.0,0.0,-0.2,-0.2,0.0,-0.2,0.0
3883,0.0,0.16666666666666666,0.0,-0.16666666666666666,-0.16666666666666666,0.16666666666666666,0.16666666666666666,0.0,0.0,0.0,0.0,0.16666666666666666,-0.16666666666666666,0.0,0.16666666666666666,-0.16666666666666666,-0.16666666666666666,-0.16666666666666666,0.16666666666666666,0.0
3884,0.0,0.16666666666666666,0.0,-0.16666666666666666,-0.16666666666666666,0.16666666666666666,0.16666666666666666,0.0,0.0,0.0,0.0,0.16666666666666666,-0.16666666666666666,0.0,0.16666666666666666,-0.16666666666666666,-0.16666666666666666,-0.16666666666666666,0.16666666666666666,0.0
3885,0.0,0.16666666666666666,0.0,-0.16666666666666666,-0.16666666666666666,0.16666666666666666,0.16666666666666666,0.0,0.0,0.0,0.0,0.16666666666666666,-0.16666666666666666,0.0,0.16666666666666666,-0.16666666666666666,-0.16666666666666666,-0.16666666666666666,0.16666666666666666,0.0
3886,0.0,0.16666666666666666,0.0,-0.16666666666666666,-0.16666666666666666,0.16666666666666666,0.16666666666666666,0.0,0.0,0.0,-0.16666666666666666,0.16666666666666666,0.0,0.0,0.16666666666666666,-0.16666666666666666,-0.16666666666666666,-0.16666666666666666,0.16666666666666666,0.0
3887,0.0,0.16666666666666666,0.0,-0.16666666666666666,-0.16666666666666666,0.16666666666666666,0.16666666666666666,0.0,0.0,0.16666666666666666,-0.16666666666666666,0.16666666666666666,0.0,0.0,0.16666666666666666,-0.16666666666666666,-0.16666666666666666,-0.16666666666666666,0.0,0.0
3888,0.0,0.2,0.2,0.2,0.0,0.0,0.0,0.0,0.2,0.2,-0.2,0.0,-0.2,0.0,0.0,-0.2,-0.2,0.0,-0.2,0.0
3889,0.0,0.2,0.2,0.0,0.0,0.0,0.0,0.0,0.2,0.2,-0.2,0.2,-0.2,0.0,0.0,-0.2,-0.2,0.0,-0.2,0.0
3890,0.2,0.2,0.0,0.0,0.0,0.0,0.0,0.0,0.2,0.2,-0.2,0.2,-0.2,0.0,0.0,-0.2,-0.2,0.0,-0.2,0.0
3891,0.2,0.2,0.0,0.0,-0.2,0.0,0.0,0.0,0.2,0.2,-0.2,0.2,-0.2,0.0,0.0,-0.2,0.0,-0.2,0.0,0.0
3892,0.0,0.16666666666666666,0.0,-0.16666666666666666,-0.16666666666666666,0.16666666666666666,0.16666666666666666,0.0,0.0,0.16666666666666666,-0.16666666666666666,0.16666666666666666,-0.16666666666666666,0.0,0.16666666666666666,-0.16666666666666666,0.0,-0.16666666666666666,0.0,0.0
3893,0.2,0.2,0.0,0.0,-0.2,0.0,0.0,0.0,0.2,0.2,-0.2,0.2,-0.2,0.0,0.0,-0.2,0.0,-0.2,0.0,0.0
3894,0.2,0.2,0.0,0.0,-0.2,0.0,0.0,0.0,0.2,0.2,-0.2,0.2,-0.2,0.0,0.0,-0.2,0.0,-0.2,0.0,0.0
3895,0.2,0.2,0.0,0.0,-0.2,0.0,-0.2,0.0,0.2,0.2,-0.2,0.2,0.0,0.0,0.0,-0.2,0.0,-0.2,0.0,0.0
3896,0.2,0.2,0.0,0.0,-0.2,0.0,-0.2,0.0,0.2,0.2,-0.2,0.2,0.0,0.0,0.0,-0.2,0.0,-0.2,0.0,0.0
3897,0.2,0.2,0.0,0.0,-0.2,0.0,-0.2,0.0,0.2,0.2,-0.2,0.2,0.0,0.0,0.0,-0.2,0.0,-0.2,0.0,0.0
3898,0.0,0.16666666666666666,-0.16666666666666666,0.0,0.16666666666666666,0.16666666666666666,0.0,0.0,0.0,0.16666666666666666,-0.16666666666666666,0.16666666666666666,-0.16666666666666666,0.0,0.0,-0.16666666666666666,0.0,-0.16666666666666666,0.16666666666666666,-0.16666666666666666
3899,0.0,0.16666666666666666,0.0,0.0,0.16666666666666666,0.16666666666666666,0.0,0.0,0.0,0.16666666666666666,-0.16666666666666666,0.16666666666666666,-0.16666666666666666,0.0,0.0,-0.16666666666666666,-0.16666666666666666,-0.16666666666666666,0.16666666666666666,-0.16666666666666666
3900,0.0,0.16666666666666666,0.0,0.0,0.16666666666666666,0.16666666666666666,0.0,0.0,0.0,0.16666666666666666,-0.16666666666666666,0.16666666666666666,-0.16666666666666666,0.0,0.0,-0.16666666666666666,-0.16666666666666666,-0.16666666666666666,0.16666666666666666,-0.16666666666666666
3901,0.0,0.16666666666666666,0.0,0.0,0.0,0.16666666666666666,0.0,-0.16666666666666666,0.16666666666666666,0.16666666666666666,-0.16666666666666666,0.16666666666666666,-0.16666666666666666,0.0,0.0,-0.16666666666666666,0.0,-0.16666666666666666,0.16666666666666666,-0.16666666666666666
3902,0.0,0.16666666666666666,0.0,0.0,0.0,0.16666666666666666,0.0,-0.16666666666666666,0.16666666666666666,0.16666666666666666,-0.16666666666666666,0.16666666666666666,-0.16666666666666666,0.0,0.0,-0.16666666666666666,0.0,-0.16666666666666666,0.16666666666666666,-0.16666666666666666
3903,0.0,0.16666666666666666,0.0,0.0,0.0,0.16666666666666666,0.16666666666666666,-0.16666666666666666,0.0,0.16666666666666666,-0.16666666666666666,0.16666666666666666,-0.16666666666666666,0.0,0.0,-0.16666666666666666,0.0,-0.16666666666666666,0.16666666666666666,-0.16666666666666666
3904,0.0,0.16666666666666666,0.0,0.0,0.0,0.16666666666666666,0.16666666666666666,-0.16666666666666666,0.0,0.16666666666666666,-0.16666666666666666,0.16666666666666666,-0.16666666666666666,0.0,0.0,-0.16666666666666666,0.0,-0.16666666666666666,0.16666666666666666,-0.16666666666666666
3905,0.0,0.16666666666666666,0.0,0.0,0.0,0.16666666666666666,0.16666666666666666,-0.16666666666666666,0.0,0.16666666666666666,-0.16666666666666666,0.16666666666666666,-0.16666666666666666,0.0,0.0,-0.16666666666666666,0.0,-0.16666666666666666,0.16666666666666666,-0.16666666666666666
3906,0.0,0.16666666666666666,0.0,0.0,0.0,0.16666666666666666,0.0,-0.16666666666666666,0.16666666666666666,0.16666666666666666,-0.16666666666666666,0.16666666666666666,-0.16666666666666666,0.0,0.0,-0.16666666666666666,0.0,-0.16666666666666666,0.16666666666666666,-0.16666666666666666
3907,0.0,0.16666666666666666,0.16666666666666666,0.0,0.0,0.0,0.0,-0.16666666666666666,0.16666666666666666,0.16666666666666666,-0.16666666666666666,0.16666666666666666,-0.16666666666666666,0.0,0.0,-0.16666666666666666,0.0,-0.16666666666666666,0.16666666666666666,-0.16666666666666666
3908,0.0,0.16666666666666666,0.16666666666666666,0.0,0.0,0.0,0.0,-0.16666666666666666,0.16666666666666666,0.16666666666666666,-0.16666666666666666,0.16666666666666666,-0.16666666666666666,0.0,0.0,-0.16666666666666666,0.0,-0.16666666666666666,0.16666666666666666,-0.16666666666666666
3909,0.0,0.16666666666666666,0.16666666666666666,0.0,0.0,0.0,0.0,-0.16666666666666666,0.16666666666666666,0.16666666666666666,-0.16666666666666666,0.16666666666666666,-0.16666666666666666,0.0,0.0,-0.16666666666666666,0.0,-0.16666666666666666,0.16666666666666666,-0.16666666666666666
3910,0.0,0.16666666666666666,0.16666666666666666,0.0,0.0,0.0,0.0,-0.16666666666666666,0.16666666666666666,0.16666666666666666,-0.16666666666666666,0.16666666666666666,-0.16666666666666666,0.0,0.0,-0.16666666666666666,0.0,-0.16666666666666666,0.16666666666666666,-0.16666666666666666
3911,0.0,0.16666666666666666,0.16666666666666666,0.0,-0.16666666666666666,0.0,0.0,-0.16666666666666666,0.16666666666666666,0.16666666666666666,-0.16666666666666666,0.16666666666666666,0.0,0.0,0.0,-0.16666666666666666,0.0,-0.16666666666666666,0.16666666666666666,-0.16666666666666666
3912,0.16666666666666666,0.16666666666666666,0.16666666666666666,0.0,-0.16666666666666666,0.0,0.0,-0.16666666666666666,0.16666666666666666,0.16666666666666666,-0.16666666666666666,0.0,0.0,0.0,0.0,-0.16666666666666666,0.0,-0.16666666666666666,0.16666666666666666,-0.16666666666666666
3913,0.16666666666666666,0.16666666666666666,0.16666666666666666,0.0,0.0,0.0,0.0,-0.16666666666666666,0.16666666666666666,0.16666666666666666,-0.16666666666666666,0.0,0.0,0.0,-0.16666666666666666,-0.16666666666666666,0.0,-0.16666666666666666,0.16666666666666666,-0.16666666666666666
3914,0.16666666666666666,0.0,0.16666666666666666,0.0,0.0,0.16666666666666666,0.0,-0.16666666666666666,0.16666666666666666,0.16666666666666666,-0.16666666666666666,0.0,0.0,0.0,-0.16666666666666666,-0.16666666666666666,0.0,-0.16666666666666666,0.16666666666666666,-0.16666666666666666
3915,0.16666666666666666,0.0,0.16666666666666666,0.0,-0.16666666666666666,0.16666666666666666,0.0,0.0,0.16666666666666666,0.16666666666666666,-0.16666666666666666,0.0,0.0,0.0,-0.16666666666666666,-0.16666666666666666,0.0,-0.16666666666666666,0.16666666666666666,-0.16666666666666666
3916,0.16666666666666666,0.0,0.16666666666666666,0.0,-0.16666666666666666,0.16666666666666666,0.0,0.0,0.16666666666666666,0.16666666666666666,-0.16666666666666666,0.0,0.0,0.16666666666666666,-0.16666666666666666,-0.16666666666666666,0.0,-0.16666666666666666,0.0,-0.16666666666666666
3917,0.16666666666666666,0.0,0.16666666666666666,0.0,-0.16666666666666666,0.16666666666666666,0.0,0.0,0.16666666666666666,0.16666666666666666,-0.16666666666666666,0.0,0.0,0.16666666666666666,-0.16666666666666666,-0.16666666666666666,0.0,-0.16666666666666666,0.0,-0.16666666666666666
3918,0.16666666666666666,0.0,0.16666666666666666,0.0,-0.16666666666666666,0.16666666666666666,0.0,0.0,0.16666666666666666,0.16666666666666666,-0.16666666666666666,0.0,0.0,0.16666666666666666,-0.16666666666666666,-0.16666666666666666,0.0,-0.16666666666666666,0.0,-0.16666666666666666
3919,0.16666666666666666,0.0,0.16666666666666666,0.0,-0.16666666666666666,0.16666666666666666,0.0,0.0,0.16666666666666666,0.16666666666666666,-0.16666666666666666,0.0,0.0,0.16666666666666666,-0.16666666666666666,-0.16666666666666666,0.0,-0.16666666666666666,0.0,-0.16666666666666666
3920,0.16666666666666666,0.0,0.16666666666666666,0.0,-0.16666666666666666,0.16666666666666666,0.0,0.0,0.16666666666666666,0.16666666666666666,-0.16666666666666666,0.0,0.0,0.16666666666666666,-0.16666666666666666,-0.16666666666666666,0.0,-0.16666666666666666,0.0,-0.16666666666666666
3921,0.0,0.16666666666666666,0.16666666666666666,0.0,-0.16666666666666666,0.16666666666666666,0.0,-0.16666666666666666,0.16666666666666666,0.0,-0.16666666666666666,0.16666666666666666,0.0,0.16666666666666666,-0.16666666666666666,0.0,0.0,-0.16666666666666666,0.0,-0.16666666666666666
3922,0.0,0.2,0.2,-0.2,-0.2,0.2,0.0,-0.2,0.0,-0.2,0.0,0.2,0.0,0.2,0.0,0.0,0.0,0.0,0.0,-0.2
3923,0.0,0.2,0.0,-0.2,-0.2,0.2,0.0,-0.2,0.0,-0.2,0.0,0.2,0.0,0.2,0.0,0.2,0.0,0.0,0.0,-0.2
3924,0.0,0.2,0.0,-0.2,0.0,0.2,0.0,-0.2,0.0,-0.2,-0.2,0.2,0.0,0.2,0.2,0.0,0.0,0.0,0.0,-0.2
3925,0.0,0.2,0.0,-0.2,0.0,0.2,0.0,-0.2,0.0,-0.2,-0.2,0.2,0.0,0.2,0.2,0.0,0.0,0.0,0.0,-0.2
3926,0.0,0.2,0.0,-0.2,-0.2,0.2,0.0,0.0,0.0,-0.2,-0.2,0.2,0.0,0.2,0.2,0.0,0.0,0.0,0.0,-0.2
3927,0.0,0.2,0.0,-0.2,-0.2,0.2,0.2,0.0,0.0,-0.2,-0.2,0.2,0.0,0.2,0.0,0.0,0.0,0.0,0.0,-0.2
3928,0.0,0.2,0.0,-0.2,-0.2,0.2,0.2,0.0,0.0,-0.2,-0.2,0.2,0.0,0.2,0.0,0.0,0.0,0.0,0.0,-0.2
3929,-0.2,0.2,0.0,0.0,-0.2,0.2,0.2,0.0,0.0,-0.2,-0.2,0.2,0.0,0.2,0.0,0.0,0.0,0.0,0.0,-0.2
3930,0.0,0.2,0.0,0.0,-0.2,0.2,0.2,0.0,0.0,-0.2,-0.2,0.2,0.0,0.2,0.0,0.0,0.0,0.0,-0.2,-0.2
3931,0.0,0.2,0.0,-0.2,-0.2,0.2,0.2,0.0,0.0,-0.2,-0.2,0.2,0.0,0.2,0.0,0.0,0.0,0.0,0.0,-0.2
3932,0.0,0.2,0.0,0.0,-0.2,0.2,0.2,0.0,0.0,-0.2,-0.2,0.2,-0.2,0.2,0.0,0.0,0.0,0.0,0.0,-0.2
3933,0.16666666666666666,0.16666666666666666,0.0,-0.16666666666666666,-0.16666666666666666,0.16666666666666666,0.16666666666666666,-0.16666666666666666,0.0,0.0,-0.16666666666666666,0.16666666666666666,0.0,0.16666666666666666,0.0,0.0,0.0,-0.16666666666666666,0.0,-0.16666666666666666
3934,0.16666666666666666,0.16666666666666666,0.0,-0.16666666666666666,-0.16666666666666666,0.16666666666666666,0.16666666666666666,-0.16666666666666666,0.0,0.0,-0.16666666666666666,0.16666666666666666,0.0,0.16666666666666666,0.0,0.0,0.0,-0.16666666666666666,0.0,-0.16666666666666666
3935,0.0,0.16666666666666666,0.0,-0.16666666666666666,-0.16666666666666666,0.16666666666666666,0.16666666666666666,-0.16666666666666666,0.0,0.0,-0.16666666666666666,0.16666666666666666,0.0,0.16666666666666666,0.0,0.0,0.16666666666666666,-0.16666666666666666,0.0,-0.16666666666666666
3936,0.16666666666666666,0.16666666666666666,0.0,-0.16666666666666666,-0.16666666666666666,0.16666666666666666,0.16666666666666666,-0.16666666666666666,0.0,0.0,-0.16666666666666666,0.0,0.0,0.16666666666666666,0.0,0.0,0.16666666666666666,-0.16666666666666666,0.0,-0.16666666666666666
